digraph Tree {
node [shape=box, style="filled", color="black"] ;
graph [ranksep=equally, splines=polyline] ;
0 [label="relationship <= -0.589\nentropy = 0.795\nsamples = 27676\nvalue = [21027, 6649]\nclass = c", fillcolor="#eda978"] ;
1 [label="education-num <= 0.94\nentropy = 0.993\nsamples = 11212\nvalue = [6174, 5038]\nclass = c", fillcolor="#fae8db"] ;
0 -> 1 [labeldistance=2.5, labelangle=45, headlabel="True"] ;
2 [label="capital-gain <= 0.544\nentropy = 0.915\nsamples = 7834\nvalue = [5245, 2589]\nclass = c", fillcolor="#f2bf9b"] ;
1 -> 2 ;
3 [label="education-num <= -1.003\nentropy = 0.877\nsamples = 7445\nvalue = [5240, 2205]\nclass = c", fillcolor="#f0b68c"] ;
2 -> 3 ;
4 [label="capital-loos <= 4.229\nentropy = 0.461\nsamples = 1168\nvalue = [1054, 114]\nclass = c", fillcolor="#e88f4e"] ;
3 -> 4 ;
5 [label="age <= -0.153\nentropy = 0.437\nsamples = 1143\nvalue = [1040, 103]\nclass = c", fillcolor="#e88d4d"] ;
4 -> 5 ;
6 [label="hour-per-week <= 0.693\nentropy = 0.217\nsamples = 317\nvalue = [306, 11]\nclass = c", fillcolor="#e68640"] ;
5 -> 6 ;
7 [label="native-country <= -4.565\nentropy = 0.136\nsamples = 262\nvalue = [257, 5]\nclass = c", fillcolor="#e6833d"] ;
6 -> 7 ;
8 [label="age <= -0.299\nentropy = 0.722\nsamples = 5\nvalue = [4, 1]\nclass = c", fillcolor="#eca06a"] ;
7 -> 8 ;
9 [label="entropy = 0.0\nsamples = 4\nvalue = [4, 0]\nclass = c", fillcolor="#e58139"] ;
8 -> 9 ;
10 [label="entropy = 0.0\nsamples = 1\nvalue = [0, 1]\nclass = l", fillcolor="#399de5"] ;
8 -> 10 ;
11 [label="education <= -2.144\nentropy = 0.116\nsamples = 257\nvalue = [253, 4]\nclass = c", fillcolor="#e5833c"] ;
7 -> 11 ;
12 [label="final-weight <= -0.448\nentropy = 0.198\nsamples = 130\nvalue = [126, 4]\nclass = c", fillcolor="#e6853f"] ;
11 -> 12 ;
13 [label="entropy = 0.0\nsamples = 34\nvalue = [34, 0]\nclass = c", fillcolor="#e58139"] ;
12 -> 13 ;
14 [label="final-weight <= -0.389\nentropy = 0.25\nsamples = 96\nvalue = [92, 4]\nclass = c", fillcolor="#e68642"] ;
12 -> 14 ;
15 [label="entropy = 0.0\nsamples = 1\nvalue = [0, 1]\nclass = l", fillcolor="#399de5"] ;
14 -> 15 ;
16 [label="occupation <= -1.081\nentropy = 0.202\nsamples = 95\nvalue = [92, 3]\nclass = c", fillcolor="#e6853f"] ;
14 -> 16 ;
17 [label="age <= -0.739\nentropy = 1.0\nsamples = 2\nvalue = [1, 1]\nclass = c", fillcolor="#ffffff"] ;
16 -> 17 ;
18 [label="entropy = 0.0\nsamples = 1\nvalue = [0, 1]\nclass = l", fillcolor="#399de5"] ;
17 -> 18 ;
19 [label="entropy = 0.0\nsamples = 1\nvalue = [1, 0]\nclass = c", fillcolor="#e58139"] ;
17 -> 19 ;
20 [label="education-num <= -1.392\nentropy = 0.15\nsamples = 93\nvalue = [91, 2]\nclass = c", fillcolor="#e6843d"] ;
16 -> 20 ;
21 [label="workclass <= 0.777\nentropy = 0.271\nsamples = 43\nvalue = [41, 2]\nclass = c", fillcolor="#e68743"] ;
20 -> 21 ;
22 [label="occupation <= 0.929\nentropy = 0.169\nsamples = 40\nvalue = [39, 1]\nclass = c", fillcolor="#e6843e"] ;
21 -> 22 ;
23 [label="entropy = 0.0\nsamples = 35\nvalue = [35, 0]\nclass = c", fillcolor="#e58139"] ;
22 -> 23 ;
24 [label="final-weight <= 1.38\nentropy = 0.722\nsamples = 5\nvalue = [4, 1]\nclass = c", fillcolor="#eca06a"] ;
22 -> 24 ;
25 [label="entropy = 0.0\nsamples = 4\nvalue = [4, 0]\nclass = c", fillcolor="#e58139"] ;
24 -> 25 ;
26 [label="entropy = 0.0\nsamples = 1\nvalue = [0, 1]\nclass = l", fillcolor="#399de5"] ;
24 -> 26 ;
27 [label="age <= -0.556\nentropy = 0.918\nsamples = 3\nvalue = [2, 1]\nclass = c", fillcolor="#f2c09c"] ;
21 -> 27 ;
28 [label="entropy = 0.0\nsamples = 1\nvalue = [0, 1]\nclass = l", fillcolor="#399de5"] ;
27 -> 28 ;
29 [label="entropy = 0.0\nsamples = 2\nvalue = [2, 0]\nclass = c", fillcolor="#e58139"] ;
27 -> 29 ;
30 [label="entropy = 0.0\nsamples = 50\nvalue = [50, 0]\nclass = c", fillcolor="#e58139"] ;
20 -> 30 ;
31 [label="entropy = 0.0\nsamples = 127\nvalue = [127, 0]\nclass = c", fillcolor="#e58139"] ;
11 -> 31 ;
32 [label="education <= -1.498\nentropy = 0.497\nsamples = 55\nvalue = [49, 6]\nclass = c", fillcolor="#e89051"] ;
6 -> 32 ;
33 [label="final-weight <= -1.49\nentropy = 0.583\nsamples = 43\nvalue = [37, 6]\nclass = c", fillcolor="#e99559"] ;
32 -> 33 ;
34 [label="entropy = 0.0\nsamples = 1\nvalue = [0, 1]\nclass = l", fillcolor="#399de5"] ;
33 -> 34 ;
35 [label="final-weight <= 0.18\nentropy = 0.527\nsamples = 42\nvalue = [37, 5]\nclass = c", fillcolor="#e99254"] ;
33 -> 35 ;
36 [label="final-weight <= -0.776\nentropy = 0.229\nsamples = 27\nvalue = [26, 1]\nclass = c", fillcolor="#e68641"] ;
35 -> 36 ;
37 [label="final-weight <= -0.948\nentropy = 0.65\nsamples = 6\nvalue = [5, 1]\nclass = c", fillcolor="#ea9a61"] ;
36 -> 37 ;
38 [label="entropy = 0.0\nsamples = 5\nvalue = [5, 0]\nclass = c", fillcolor="#e58139"] ;
37 -> 38 ;
39 [label="entropy = 0.0\nsamples = 1\nvalue = [0, 1]\nclass = l", fillcolor="#399de5"] ;
37 -> 39 ;
40 [label="entropy = 0.0\nsamples = 21\nvalue = [21, 0]\nclass = c", fillcolor="#e58139"] ;
36 -> 40 ;
41 [label="final-weight <= 0.45\nentropy = 0.837\nsamples = 15\nvalue = [11, 4]\nclass = c", fillcolor="#eeaf81"] ;
35 -> 41 ;
42 [label="entropy = 0.0\nsamples = 3\nvalue = [0, 3]\nclass = l", fillcolor="#399de5"] ;
41 -> 42 ;
43 [label="age <= -0.226\nentropy = 0.414\nsamples = 12\nvalue = [11, 1]\nclass = c", fillcolor="#e78c4b"] ;
41 -> 43 ;
44 [label="entropy = 0.0\nsamples = 11\nvalue = [11, 0]\nclass = c", fillcolor="#e58139"] ;
43 -> 44 ;
45 [label="entropy = 0.0\nsamples = 1\nvalue = [0, 1]\nclass = l", fillcolor="#399de5"] ;
43 -> 45 ;
46 [label="entropy = 0.0\nsamples = 12\nvalue = [12, 0]\nclass = c", fillcolor="#e58139"] ;
32 -> 46 ;
47 [label="age <= 2.047\nentropy = 0.504\nsamples = 826\nvalue = [734, 92]\nclass = c", fillcolor="#e89152"] ;
5 -> 47 ;
48 [label="hour-per-week <= 0.41\nentropy = 0.542\nsamples = 732\nvalue = [641, 91]\nclass = c", fillcolor="#e99355"] ;
47 -> 48 ;
49 [label="occupation <= -1.081\nentropy = 0.474\nsamples = 580\nvalue = [521, 59]\nclass = c", fillcolor="#e88f4f"] ;
48 -> 49 ;
50 [label="entropy = 0.0\nsamples = 46\nvalue = [46, 0]\nclass = c", fillcolor="#e58139"] ;
49 -> 50 ;
51 [label="education <= -2.144\nentropy = 0.501\nsamples = 534\nvalue = [475, 59]\nclass = c", fillcolor="#e89152"] ;
49 -> 51 ;
52 [label="final-weight <= 0.082\nentropy = 0.634\nsamples = 225\nvalue = [189, 36]\nclass = c", fillcolor="#ea995f"] ;
51 -> 52 ;
53 [label="final-weight <= 0.047\nentropy = 0.73\nsamples = 142\nvalue = [113, 29]\nclass = c", fillcolor="#eca16c"] ;
52 -> 53 ;
54 [label="final-weight <= -0.034\nentropy = 0.685\nsamples = 137\nvalue = [112, 25]\nclass = c", fillcolor="#eb9d65"] ;
53 -> 54 ;
55 [label="occupation <= 0.692\nentropy = 0.722\nsamples = 125\nvalue = [100, 25]\nclass = c", fillcolor="#eca06a"] ;
54 -> 55 ;
56 [label="final-weight <= -0.049\nentropy = 0.633\nsamples = 94\nvalue = [79, 15]\nclass = c", fillcolor="#ea995f"] ;
55 -> 56 ;
57 [label="final-weight <= -0.165\nentropy = 0.611\nsamples = 93\nvalue = [79, 14]\nclass = c", fillcolor="#ea975c"] ;
56 -> 57 ;
58 [label="final-weight <= -0.193\nentropy = 0.679\nsamples = 78\nvalue = [64, 14]\nclass = c", fillcolor="#eb9d64"] ;
57 -> 58 ;
59 [label="age <= 0.8\nentropy = 0.629\nsamples = 76\nvalue = [64, 12]\nclass = c", fillcolor="#ea995e"] ;
58 -> 59 ;
60 [label="age <= 0.177\nentropy = 0.371\nsamples = 28\nvalue = [26, 2]\nclass = c", fillcolor="#e78b48"] ;
59 -> 60 ;
61 [label="final-weight <= -0.711\nentropy = 0.764\nsamples = 9\nvalue = [7, 2]\nclass = c", fillcolor="#eca572"] ;
60 -> 61 ;
62 [label="final-weight <= -1.01\nentropy = 1.0\nsamples = 4\nvalue = [2, 2]\nclass = c", fillcolor="#ffffff"] ;
61 -> 62 ;
63 [label="entropy = 0.0\nsamples = 2\nvalue = [2, 0]\nclass = c", fillcolor="#e58139"] ;
62 -> 63 ;
64 [label="entropy = 0.0\nsamples = 2\nvalue = [0, 2]\nclass = l", fillcolor="#399de5"] ;
62 -> 64 ;
65 [label="entropy = 0.0\nsamples = 5\nvalue = [5, 0]\nclass = c", fillcolor="#e58139"] ;
61 -> 65 ;
66 [label="entropy = 0.0\nsamples = 19\nvalue = [19, 0]\nclass = c", fillcolor="#e58139"] ;
60 -> 66 ;
67 [label="final-weight <= -0.318\nentropy = 0.738\nsamples = 48\nvalue = [38, 10]\nclass = c", fillcolor="#eca26d"] ;
59 -> 67 ;
68 [label="final-weight <= -0.47\nentropy = 0.641\nsamples = 43\nvalue = [36, 7]\nclass = c", fillcolor="#ea9a5f"] ;
67 -> 68 ;
69 [label="final-weight <= -0.488\nentropy = 0.771\nsamples = 31\nvalue = [24, 7]\nclass = c", fillcolor="#eda673"] ;
68 -> 69 ;
70 [label="hour-per-week <= -1.574\nentropy = 0.722\nsamples = 30\nvalue = [24, 6]\nclass = c", fillcolor="#eca06a"] ;
69 -> 70 ;
71 [label="entropy = 0.0\nsamples = 3\nvalue = [3, 0]\nclass = c", fillcolor="#e58139"] ;
70 -> 71 ;
72 [label="hour-per-week <= -0.967\nentropy = 0.764\nsamples = 27\nvalue = [21, 6]\nclass = c", fillcolor="#eca572"] ;
70 -> 72 ;
73 [label="entropy = 0.0\nsamples = 1\nvalue = [0, 1]\nclass = l", fillcolor="#399de5"] ;
72 -> 73 ;
74 [label="final-weight <= -1.387\nentropy = 0.706\nsamples = 26\nvalue = [21, 5]\nclass = c", fillcolor="#eb9f68"] ;
72 -> 74 ;
75 [label="entropy = 0.0\nsamples = 5\nvalue = [5, 0]\nclass = c", fillcolor="#e58139"] ;
74 -> 75 ;
76 [label="final-weight <= -1.368\nentropy = 0.792\nsamples = 21\nvalue = [16, 5]\nclass = c", fillcolor="#eda877"] ;
74 -> 76 ;
77 [label="entropy = 0.0\nsamples = 1\nvalue = [0, 1]\nclass = l", fillcolor="#399de5"] ;
76 -> 77 ;
78 [label="final-weight <= -0.652\nentropy = 0.722\nsamples = 20\nvalue = [16, 4]\nclass = c", fillcolor="#eca06a"] ;
76 -> 78 ;
79 [label="age <= 1.46\nentropy = 0.567\nsamples = 15\nvalue = [13, 2]\nclass = c", fillcolor="#e99457"] ;
78 -> 79 ;
80 [label="entropy = 0.0\nsamples = 9\nvalue = [9, 0]\nclass = c", fillcolor="#e58139"] ;
79 -> 80 ;
81 [label="age <= 1.754\nentropy = 0.918\nsamples = 6\nvalue = [4, 2]\nclass = c", fillcolor="#f2c09c"] ;
79 -> 81 ;
82 [label="education-num <= -1.392\nentropy = 1.0\nsamples = 4\nvalue = [2, 2]\nclass = c", fillcolor="#ffffff"] ;
81 -> 82 ;
83 [label="entropy = 0.0\nsamples = 1\nvalue = [0, 1]\nclass = l", fillcolor="#399de5"] ;
82 -> 83 ;
84 [label="final-weight <= -1.018\nentropy = 0.918\nsamples = 3\nvalue = [2, 1]\nclass = c", fillcolor="#f2c09c"] ;
82 -> 84 ;
85 [label="entropy = 0.0\nsamples = 1\nvalue = [0, 1]\nclass = l", fillcolor="#399de5"] ;
84 -> 85 ;
86 [label="entropy = 0.0\nsamples = 2\nvalue = [2, 0]\nclass = c", fillcolor="#e58139"] ;
84 -> 86 ;
87 [label="entropy = 0.0\nsamples = 2\nvalue = [2, 0]\nclass = c", fillcolor="#e58139"] ;
81 -> 87 ;
88 [label="final-weight <= -0.567\nentropy = 0.971\nsamples = 5\nvalue = [3, 2]\nclass = c", fillcolor="#f6d5bd"] ;
78 -> 88 ;
89 [label="entropy = 0.0\nsamples = 2\nvalue = [0, 2]\nclass = l", fillcolor="#399de5"] ;
88 -> 89 ;
90 [label="entropy = 0.0\nsamples = 3\nvalue = [3, 0]\nclass = c", fillcolor="#e58139"] ;
88 -> 90 ;
91 [label="entropy = 0.0\nsamples = 1\nvalue = [0, 1]\nclass = l", fillcolor="#399de5"] ;
69 -> 91 ;
92 [label="entropy = 0.0\nsamples = 12\nvalue = [12, 0]\nclass = c", fillcolor="#e58139"] ;
68 -> 92 ;
93 [label="occupation <= -0.49\nentropy = 0.971\nsamples = 5\nvalue = [2, 3]\nclass = l", fillcolor="#bddef6"] ;
67 -> 93 ;
94 [label="entropy = 0.0\nsamples = 3\nvalue = [0, 3]\nclass = l", fillcolor="#399de5"] ;
93 -> 94 ;
95 [label="entropy = 0.0\nsamples = 2\nvalue = [2, 0]\nclass = c", fillcolor="#e58139"] ;
93 -> 95 ;
96 [label="entropy = 0.0\nsamples = 2\nvalue = [0, 2]\nclass = l", fillcolor="#399de5"] ;
58 -> 96 ;
97 [label="entropy = 0.0\nsamples = 15\nvalue = [15, 0]\nclass = c", fillcolor="#e58139"] ;
57 -> 97 ;
98 [label="entropy = 0.0\nsamples = 1\nvalue = [0, 1]\nclass = l", fillcolor="#399de5"] ;
56 -> 98 ;
99 [label="age <= 0.214\nentropy = 0.907\nsamples = 31\nvalue = [21, 10]\nclass = c", fillcolor="#f1bd97"] ;
55 -> 99 ;
100 [label="entropy = 0.0\nsamples = 6\nvalue = [6, 0]\nclass = c", fillcolor="#e58139"] ;
99 -> 100 ;
101 [label="capital-gain <= 0.151\nentropy = 0.971\nsamples = 25\nvalue = [15, 10]\nclass = c", fillcolor="#f6d5bd"] ;
99 -> 101 ;
102 [label="age <= 1.607\nentropy = 0.932\nsamples = 23\nvalue = [15, 8]\nclass = c", fillcolor="#f3c4a3"] ;
101 -> 102 ;
103 [label="age <= 1.46\nentropy = 0.997\nsamples = 15\nvalue = [8, 7]\nclass = c", fillcolor="#fcefe6"] ;
102 -> 103 ;
104 [label="age <= 1.094\nentropy = 0.881\nsamples = 10\nvalue = [7, 3]\nclass = c", fillcolor="#f0b78e"] ;
103 -> 104 ;
105 [label="final-weight <= -0.539\nentropy = 0.971\nsamples = 5\nvalue = [2, 3]\nclass = l", fillcolor="#bddef6"] ;
104 -> 105 ;
106 [label="workclass <= 1.12\nentropy = 0.918\nsamples = 3\nvalue = [2, 1]\nclass = c", fillcolor="#f2c09c"] ;
105 -> 106 ;
107 [label="occupation <= 1.52\nentropy = 1.0\nsamples = 2\nvalue = [1, 1]\nclass = c", fillcolor="#ffffff"] ;
106 -> 107 ;
108 [label="entropy = 0.0\nsamples = 1\nvalue = [1, 0]\nclass = c", fillcolor="#e58139"] ;
107 -> 108 ;
109 [label="entropy = 0.0\nsamples = 1\nvalue = [0, 1]\nclass = l", fillcolor="#399de5"] ;
107 -> 109 ;
110 [label="entropy = 0.0\nsamples = 1\nvalue = [1, 0]\nclass = c", fillcolor="#e58139"] ;
106 -> 110 ;
111 [label="entropy = 0.0\nsamples = 2\nvalue = [0, 2]\nclass = l", fillcolor="#399de5"] ;
105 -> 111 ;
112 [label="entropy = 0.0\nsamples = 5\nvalue = [5, 0]\nclass = c", fillcolor="#e58139"] ;
104 -> 112 ;
113 [label="final-weight <= -0.95\nentropy = 0.722\nsamples = 5\nvalue = [1, 4]\nclass = l", fillcolor="#6ab6ec"] ;
103 -> 113 ;
114 [label="hour-per-week <= 0.167\nentropy = 1.0\nsamples = 2\nvalue = [1, 1]\nclass = c", fillcolor="#ffffff"] ;
113 -> 114 ;
115 [label="entropy = 0.0\nsamples = 1\nvalue = [1, 0]\nclass = c", fillcolor="#e58139"] ;
114 -> 115 ;
116 [label="entropy = 0.0\nsamples = 1\nvalue = [0, 1]\nclass = l", fillcolor="#399de5"] ;
114 -> 116 ;
117 [label="entropy = 0.0\nsamples = 3\nvalue = [0, 3]\nclass = l", fillcolor="#399de5"] ;
113 -> 117 ;
118 [label="final-weight <= -0.113\nentropy = 0.544\nsamples = 8\nvalue = [7, 1]\nclass = c", fillcolor="#e99355"] ;
102 -> 118 ;
119 [label="entropy = 0.0\nsamples = 6\nvalue = [6, 0]\nclass = c", fillcolor="#e58139"] ;
118 -> 119 ;
120 [label="education-num <= -1.392\nentropy = 1.0\nsamples = 2\nvalue = [1, 1]\nclass = c", fillcolor="#ffffff"] ;
118 -> 120 ;
121 [label="entropy = 0.0\nsamples = 1\nvalue = [0, 1]\nclass = l", fillcolor="#399de5"] ;
120 -> 121 ;
122 [label="entropy = 0.0\nsamples = 1\nvalue = [1, 0]\nclass = c", fillcolor="#e58139"] ;
120 -> 122 ;
123 [label="entropy = 0.0\nsamples = 2\nvalue = [0, 2]\nclass = l", fillcolor="#399de5"] ;
101 -> 123 ;
124 [label="entropy = 0.0\nsamples = 12\nvalue = [12, 0]\nclass = c", fillcolor="#e58139"] ;
54 -> 124 ;
125 [label="age <= 1.35\nentropy = 0.722\nsamples = 5\nvalue = [1, 4]\nclass = l", fillcolor="#6ab6ec"] ;
53 -> 125 ;
126 [label="entropy = 0.0\nsamples = 4\nvalue = [0, 4]\nclass = l", fillcolor="#399de5"] ;
125 -> 126 ;
127 [label="entropy = 0.0\nsamples = 1\nvalue = [1, 0]\nclass = c", fillcolor="#e58139"] ;
125 -> 127 ;
128 [label="final-weight <= 1.696\nentropy = 0.417\nsamples = 83\nvalue = [76, 7]\nclass = c", fillcolor="#e78d4b"] ;
52 -> 128 ;
129 [label="race <= -0.784\nentropy = 0.25\nsamples = 72\nvalue = [69, 3]\nclass = c", fillcolor="#e68642"] ;
128 -> 129 ;
130 [label="age <= 1.277\nentropy = 0.684\nsamples = 11\nvalue = [9, 2]\nclass = c", fillcolor="#eb9d65"] ;
129 -> 130 ;
131 [label="entropy = 0.0\nsamples = 8\nvalue = [8, 0]\nclass = c", fillcolor="#e58139"] ;
130 -> 131 ;
132 [label="final-weight <= 0.428\nentropy = 0.918\nsamples = 3\nvalue = [1, 2]\nclass = l", fillcolor="#9ccef2"] ;
130 -> 132 ;
133 [label="entropy = 0.0\nsamples = 1\nvalue = [1, 0]\nclass = c", fillcolor="#e58139"] ;
132 -> 133 ;
134 [label="entropy = 0.0\nsamples = 2\nvalue = [0, 2]\nclass = l", fillcolor="#399de5"] ;
132 -> 134 ;
135 [label="final-weight <= 0.212\nentropy = 0.121\nsamples = 61\nvalue = [60, 1]\nclass = c", fillcolor="#e5833c"] ;
129 -> 135 ;
136 [label="final-weight <= 0.191\nentropy = 0.414\nsamples = 12\nvalue = [11, 1]\nclass = c", fillcolor="#e78c4b"] ;
135 -> 136 ;
137 [label="entropy = 0.0\nsamples = 11\nvalue = [11, 0]\nclass = c", fillcolor="#e58139"] ;
136 -> 137 ;
138 [label="entropy = 0.0\nsamples = 1\nvalue = [0, 1]\nclass = l", fillcolor="#399de5"] ;
136 -> 138 ;
139 [label="entropy = 0.0\nsamples = 49\nvalue = [49, 0]\nclass = c", fillcolor="#e58139"] ;
135 -> 139 ;
140 [label="age <= 1.497\nentropy = 0.946\nsamples = 11\nvalue = [7, 4]\nclass = c", fillcolor="#f4c9aa"] ;
128 -> 140 ;
141 [label="final-weight <= 2.138\nentropy = 0.764\nsamples = 9\nvalue = [7, 2]\nclass = c", fillcolor="#eca572"] ;
140 -> 141 ;
142 [label="occupation <= 0.456\nentropy = 0.918\nsamples = 3\nvalue = [1, 2]\nclass = l", fillcolor="#9ccef2"] ;
141 -> 142 ;
143 [label="capital-gain <= 0.064\nentropy = 1.0\nsamples = 2\nvalue = [1, 1]\nclass = c", fillcolor="#ffffff"] ;
142 -> 143 ;
144 [label="entropy = 0.0\nsamples = 1\nvalue = [1, 0]\nclass = c", fillcolor="#e58139"] ;
143 -> 144 ;
145 [label="entropy = 0.0\nsamples = 1\nvalue = [0, 1]\nclass = l", fillcolor="#399de5"] ;
143 -> 145 ;
146 [label="entropy = 0.0\nsamples = 1\nvalue = [0, 1]\nclass = l", fillcolor="#399de5"] ;
142 -> 146 ;
147 [label="entropy = 0.0\nsamples = 6\nvalue = [6, 0]\nclass = c", fillcolor="#e58139"] ;
141 -> 147 ;
148 [label="entropy = 0.0\nsamples = 2\nvalue = [0, 2]\nclass = l", fillcolor="#399de5"] ;
140 -> 148 ;
149 [label="workclass <= 0.433\nentropy = 0.382\nsamples = 309\nvalue = [286, 23]\nclass = c", fillcolor="#e78b49"] ;
51 -> 149 ;
150 [label="workclass <= -1.627\nentropy = 0.276\nsamples = 252\nvalue = [240, 12]\nclass = c", fillcolor="#e68743"] ;
149 -> 150 ;
151 [label="entropy = 0.0\nsamples = 1\nvalue = [0, 1]\nclass = l", fillcolor="#399de5"] ;
150 -> 151 ;
152 [label="final-weight <= -0.228\nentropy = 0.26\nsamples = 251\nvalue = [240, 11]\nclass = c", fillcolor="#e68742"] ;
150 -> 152 ;
153 [label="final-weight <= -1.273\nentropy = 0.084\nsamples = 96\nvalue = [95, 1]\nclass = c", fillcolor="#e5823b"] ;
152 -> 153 ;
154 [label="education <= -1.498\nentropy = 0.439\nsamples = 11\nvalue = [10, 1]\nclass = c", fillcolor="#e88e4d"] ;
153 -> 154 ;
155 [label="entropy = 0.0\nsamples = 1\nvalue = [0, 1]\nclass = l", fillcolor="#399de5"] ;
154 -> 155 ;
156 [label="entropy = 0.0\nsamples = 10\nvalue = [10, 0]\nclass = c", fillcolor="#e58139"] ;
154 -> 156 ;
157 [label="entropy = 0.0\nsamples = 85\nvalue = [85, 0]\nclass = c", fillcolor="#e58139"] ;
153 -> 157 ;
158 [label="final-weight <= -0.207\nentropy = 0.345\nsamples = 155\nvalue = [145, 10]\nclass = c", fillcolor="#e78a47"] ;
152 -> 158 ;
159 [label="entropy = 0.0\nsamples = 1\nvalue = [0, 1]\nclass = l", fillcolor="#399de5"] ;
158 -> 159 ;
160 [label="final-weight <= 1.906\nentropy = 0.321\nsamples = 154\nvalue = [145, 9]\nclass = c", fillcolor="#e78945"] ;
158 -> 160 ;
161 [label="final-weight <= 0.919\nentropy = 0.259\nsamples = 137\nvalue = [131, 6]\nclass = c", fillcolor="#e68742"] ;
160 -> 161 ;
162 [label="final-weight <= 0.901\nentropy = 0.318\nsamples = 104\nvalue = [98, 6]\nclass = c", fillcolor="#e78945"] ;
161 -> 162 ;
163 [label="age <= 1.02\nentropy = 0.28\nsamples = 103\nvalue = [98, 5]\nclass = c", fillcolor="#e68743"] ;
162 -> 163 ;
164 [label="education <= -1.757\nentropy = 0.112\nsamples = 67\nvalue = [66, 1]\nclass = c", fillcolor="#e5833c"] ;
163 -> 164 ;
165 [label="final-weight <= 0.434\nentropy = 0.544\nsamples = 8\nvalue = [7, 1]\nclass = c", fillcolor="#e99355"] ;
164 -> 165 ;
166 [label="entropy = 0.0\nsamples = 6\nvalue = [6, 0]\nclass = c", fillcolor="#e58139"] ;
165 -> 166 ;
167 [label="native-country <= -2.712\nentropy = 1.0\nsamples = 2\nvalue = [1, 1]\nclass = c", fillcolor="#ffffff"] ;
165 -> 167 ;
168 [label="entropy = 0.0\nsamples = 1\nvalue = [1, 0]\nclass = c", fillcolor="#e58139"] ;
167 -> 168 ;
169 [label="entropy = 0.0\nsamples = 1\nvalue = [0, 1]\nclass = l", fillcolor="#399de5"] ;
167 -> 169 ;
170 [label="entropy = 0.0\nsamples = 59\nvalue = [59, 0]\nclass = c", fillcolor="#e58139"] ;
164 -> 170 ;
171 [label="final-weight <= 0.815\nentropy = 0.503\nsamples = 36\nvalue = [32, 4]\nclass = c", fillcolor="#e89152"] ;
163 -> 171 ;
172 [label="final-weight <= 0.083\nentropy = 0.422\nsamples = 35\nvalue = [32, 3]\nclass = c", fillcolor="#e78d4c"] ;
171 -> 172 ;
173 [label="final-weight <= 0.072\nentropy = 0.65\nsamples = 18\nvalue = [15, 3]\nclass = c", fillcolor="#ea9a61"] ;
172 -> 173 ;
174 [label="native-country <= -4.502\nentropy = 0.523\nsamples = 17\nvalue = [15, 2]\nclass = c", fillcolor="#e89253"] ;
173 -> 174 ;
175 [label="entropy = 0.0\nsamples = 1\nvalue = [0, 1]\nclass = l", fillcolor="#399de5"] ;
174 -> 175 ;
176 [label="hour-per-week <= 0.167\nentropy = 0.337\nsamples = 16\nvalue = [15, 1]\nclass = c", fillcolor="#e78946"] ;
174 -> 176 ;
177 [label="entropy = 0.0\nsamples = 13\nvalue = [13, 0]\nclass = c", fillcolor="#e58139"] ;
176 -> 177 ;
178 [label="education-num <= -2.364\nentropy = 0.918\nsamples = 3\nvalue = [2, 1]\nclass = c", fillcolor="#f2c09c"] ;
176 -> 178 ;
179 [label="entropy = 0.0\nsamples = 2\nvalue = [2, 0]\nclass = c", fillcolor="#e58139"] ;
178 -> 179 ;
180 [label="entropy = 0.0\nsamples = 1\nvalue = [0, 1]\nclass = l", fillcolor="#399de5"] ;
178 -> 180 ;
181 [label="entropy = 0.0\nsamples = 1\nvalue = [0, 1]\nclass = l", fillcolor="#399de5"] ;
173 -> 181 ;
182 [label="entropy = 0.0\nsamples = 17\nvalue = [17, 0]\nclass = c", fillcolor="#e58139"] ;
172 -> 182 ;
183 [label="entropy = 0.0\nsamples = 1\nvalue = [0, 1]\nclass = l", fillcolor="#399de5"] ;
171 -> 183 ;
184 [label="entropy = 0.0\nsamples = 1\nvalue = [0, 1]\nclass = l", fillcolor="#399de5"] ;
162 -> 184 ;
185 [label="entropy = 0.0\nsamples = 33\nvalue = [33, 0]\nclass = c", fillcolor="#e58139"] ;
161 -> 185 ;
186 [label="age <= 0.654\nentropy = 0.672\nsamples = 17\nvalue = [14, 3]\nclass = c", fillcolor="#eb9c63"] ;
160 -> 186 ;
187 [label="entropy = 0.0\nsamples = 9\nvalue = [9, 0]\nclass = c", fillcolor="#e58139"] ;
186 -> 187 ;
188 [label="occupation <= 0.219\nentropy = 0.954\nsamples = 8\nvalue = [5, 3]\nclass = c", fillcolor="#f5cdb0"] ;
186 -> 188 ;
189 [label="age <= 1.534\nentropy = 0.971\nsamples = 5\nvalue = [2, 3]\nclass = l", fillcolor="#bddef6"] ;
188 -> 189 ;
190 [label="age <= 0.947\nentropy = 0.918\nsamples = 3\nvalue = [2, 1]\nclass = c", fillcolor="#f2c09c"] ;
189 -> 190 ;
191 [label="entropy = 0.0\nsamples = 1\nvalue = [0, 1]\nclass = l", fillcolor="#399de5"] ;
190 -> 191 ;
192 [label="entropy = 0.0\nsamples = 2\nvalue = [2, 0]\nclass = c", fillcolor="#e58139"] ;
190 -> 192 ;
193 [label="entropy = 0.0\nsamples = 2\nvalue = [0, 2]\nclass = l", fillcolor="#399de5"] ;
189 -> 193 ;
194 [label="entropy = 0.0\nsamples = 3\nvalue = [3, 0]\nclass = c", fillcolor="#e58139"] ;
188 -> 194 ;
195 [label="hour-per-week <= -1.412\nentropy = 0.708\nsamples = 57\nvalue = [46, 11]\nclass = c", fillcolor="#eb9f68"] ;
149 -> 195 ;
196 [label="entropy = 0.0\nsamples = 13\nvalue = [13, 0]\nclass = c", fillcolor="#e58139"] ;
195 -> 196 ;
197 [label="age <= 1.973\nentropy = 0.811\nsamples = 44\nvalue = [33, 11]\nclass = c", fillcolor="#eeab7b"] ;
195 -> 197 ;
198 [label="occupation <= -0.135\nentropy = 0.75\nsamples = 42\nvalue = [33, 9]\nclass = c", fillcolor="#eca36f"] ;
197 -> 198 ;
199 [label="final-weight <= -0.19\nentropy = 0.503\nsamples = 27\nvalue = [24, 3]\nclass = c", fillcolor="#e89152"] ;
198 -> 199 ;
200 [label="final-weight <= -0.377\nentropy = 0.811\nsamples = 12\nvalue = [9, 3]\nclass = c", fillcolor="#eeab7b"] ;
199 -> 200 ;
201 [label="final-weight <= -1.354\nentropy = 0.469\nsamples = 10\nvalue = [9, 1]\nclass = c", fillcolor="#e88f4f"] ;
200 -> 201 ;
202 [label="age <= 1.57\nentropy = 1.0\nsamples = 2\nvalue = [1, 1]\nclass = c", fillcolor="#ffffff"] ;
201 -> 202 ;
203 [label="entropy = 0.0\nsamples = 1\nvalue = [0, 1]\nclass = l", fillcolor="#399de5"] ;
202 -> 203 ;
204 [label="entropy = 0.0\nsamples = 1\nvalue = [1, 0]\nclass = c", fillcolor="#e58139"] ;
202 -> 204 ;
205 [label="entropy = 0.0\nsamples = 8\nvalue = [8, 0]\nclass = c", fillcolor="#e58139"] ;
201 -> 205 ;
206 [label="entropy = 0.0\nsamples = 2\nvalue = [0, 2]\nclass = l", fillcolor="#399de5"] ;
200 -> 206 ;
207 [label="entropy = 0.0\nsamples = 15\nvalue = [15, 0]\nclass = c", fillcolor="#e58139"] ;
199 -> 207 ;
208 [label="workclass <= 1.12\nentropy = 0.971\nsamples = 15\nvalue = [9, 6]\nclass = c", fillcolor="#f6d5bd"] ;
198 -> 208 ;
209 [label="entropy = 0.0\nsamples = 2\nvalue = [0, 2]\nclass = l", fillcolor="#399de5"] ;
208 -> 209 ;
210 [label="workclass <= 1.807\nentropy = 0.89\nsamples = 13\nvalue = [9, 4]\nclass = c", fillcolor="#f1b991"] ;
208 -> 210 ;
211 [label="native-country <= -0.539\nentropy = 0.971\nsamples = 10\nvalue = [6, 4]\nclass = c", fillcolor="#f6d5bd"] ;
210 -> 211 ;
212 [label="entropy = 0.0\nsamples = 2\nvalue = [2, 0]\nclass = c", fillcolor="#e58139"] ;
211 -> 212 ;
213 [label="final-weight <= -0.059\nentropy = 1.0\nsamples = 8\nvalue = [4, 4]\nclass = c", fillcolor="#ffffff"] ;
211 -> 213 ;
214 [label="occupation <= 1.52\nentropy = 0.918\nsamples = 6\nvalue = [4, 2]\nclass = c", fillcolor="#f2c09c"] ;
213 -> 214 ;
215 [label="entropy = 0.0\nsamples = 3\nvalue = [3, 0]\nclass = c", fillcolor="#e58139"] ;
214 -> 215 ;
216 [label="final-weight <= -0.385\nentropy = 0.918\nsamples = 3\nvalue = [1, 2]\nclass = l", fillcolor="#9ccef2"] ;
214 -> 216 ;
217 [label="entropy = 0.0\nsamples = 2\nvalue = [0, 2]\nclass = l", fillcolor="#399de5"] ;
216 -> 217 ;
218 [label="entropy = 0.0\nsamples = 1\nvalue = [1, 0]\nclass = c", fillcolor="#e58139"] ;
216 -> 218 ;
219 [label="entropy = 0.0\nsamples = 2\nvalue = [0, 2]\nclass = l", fillcolor="#399de5"] ;
213 -> 219 ;
220 [label="entropy = 0.0\nsamples = 3\nvalue = [3, 0]\nclass = c", fillcolor="#e58139"] ;
210 -> 220 ;
221 [label="entropy = 0.0\nsamples = 2\nvalue = [0, 2]\nclass = l", fillcolor="#399de5"] ;
197 -> 221 ;
222 [label="native-country <= -3.543\nentropy = 0.742\nsamples = 152\nvalue = [120, 32]\nclass = c", fillcolor="#eca36e"] ;
48 -> 222 ;
223 [label="entropy = 0.0\nsamples = 11\nvalue = [11, 0]\nclass = c", fillcolor="#e58139"] ;
222 -> 223 ;
224 [label="final-weight <= -0.729\nentropy = 0.773\nsamples = 141\nvalue = [109, 32]\nclass = c", fillcolor="#eda673"] ;
222 -> 224 ;
225 [label="education <= -1.24\nentropy = 0.469\nsamples = 40\nvalue = [36, 4]\nclass = c", fillcolor="#e88f4f"] ;
224 -> 225 ;
226 [label="hour-per-week <= 0.977\nentropy = 0.316\nsamples = 35\nvalue = [33, 2]\nclass = c", fillcolor="#e78945"] ;
225 -> 226 ;
227 [label="workclass <= 0.433\nentropy = 0.592\nsamples = 14\nvalue = [12, 2]\nclass = c", fillcolor="#e9965a"] ;
226 -> 227 ;
228 [label="entropy = 0.0\nsamples = 9\nvalue = [9, 0]\nclass = c", fillcolor="#e58139"] ;
227 -> 228 ;
229 [label="age <= 1.424\nentropy = 0.971\nsamples = 5\nvalue = [3, 2]\nclass = c", fillcolor="#f6d5bd"] ;
227 -> 229 ;
230 [label="entropy = 0.0\nsamples = 2\nvalue = [0, 2]\nclass = l", fillcolor="#399de5"] ;
229 -> 230 ;
231 [label="entropy = 0.0\nsamples = 3\nvalue = [3, 0]\nclass = c", fillcolor="#e58139"] ;
229 -> 231 ;
232 [label="entropy = 0.0\nsamples = 21\nvalue = [21, 0]\nclass = c", fillcolor="#e58139"] ;
226 -> 232 ;
233 [label="occupation <= 0.81\nentropy = 0.971\nsamples = 5\nvalue = [3, 2]\nclass = c", fillcolor="#f6d5bd"] ;
225 -> 233 ;
234 [label="entropy = 0.0\nsamples = 3\nvalue = [3, 0]\nclass = c", fillcolor="#e58139"] ;
233 -> 234 ;
235 [label="entropy = 0.0\nsamples = 2\nvalue = [0, 2]\nclass = l", fillcolor="#399de5"] ;
233 -> 235 ;
236 [label="native-country <= -1.626\nentropy = 0.852\nsamples = 101\nvalue = [73, 28]\nclass = c", fillcolor="#efb185"] ;
224 -> 236 ;
237 [label="entropy = 0.0\nsamples = 2\nvalue = [0, 2]\nclass = l", fillcolor="#399de5"] ;
236 -> 237 ;
238 [label="final-weight <= -0.668\nentropy = 0.831\nsamples = 99\nvalue = [73, 26]\nclass = c", fillcolor="#eeae80"] ;
236 -> 238 ;
239 [label="hour-per-week <= 2.759\nentropy = 0.811\nsamples = 4\nvalue = [1, 3]\nclass = l", fillcolor="#7bbeee"] ;
238 -> 239 ;
240 [label="entropy = 0.0\nsamples = 3\nvalue = [0, 3]\nclass = l", fillcolor="#399de5"] ;
239 -> 240 ;
241 [label="entropy = 0.0\nsamples = 1\nvalue = [1, 0]\nclass = c", fillcolor="#e58139"] ;
239 -> 241 ;
242 [label="final-weight <= 1.375\nentropy = 0.799\nsamples = 95\nvalue = [72, 23]\nclass = c", fillcolor="#eda978"] ;
238 -> 242 ;
243 [label="final-weight <= 0.246\nentropy = 0.736\nsamples = 82\nvalue = [65, 17]\nclass = c", fillcolor="#eca26d"] ;
242 -> 243 ;
244 [label="final-weight <= -0.588\nentropy = 0.848\nsamples = 51\nvalue = [37, 14]\nclass = c", fillcolor="#efb184"] ;
243 -> 244 ;
245 [label="entropy = 0.0\nsamples = 6\nvalue = [6, 0]\nclass = c", fillcolor="#e58139"] ;
244 -> 245 ;
246 [label="age <= 1.094\nentropy = 0.894\nsamples = 45\nvalue = [31, 14]\nclass = c", fillcolor="#f1ba92"] ;
244 -> 246 ;
247 [label="final-weight <= -0.303\nentropy = 0.98\nsamples = 24\nvalue = [14, 10]\nclass = c", fillcolor="#f8dbc6"] ;
246 -> 247 ;
248 [label="entropy = 0.0\nsamples = 3\nvalue = [0, 3]\nclass = l", fillcolor="#399de5"] ;
247 -> 248 ;
249 [label="age <= 0.324\nentropy = 0.918\nsamples = 21\nvalue = [14, 7]\nclass = c", fillcolor="#f2c09c"] ;
247 -> 249 ;
250 [label="entropy = 0.0\nsamples = 6\nvalue = [6, 0]\nclass = c", fillcolor="#e58139"] ;
249 -> 250 ;
251 [label="workclass <= 1.12\nentropy = 0.997\nsamples = 15\nvalue = [8, 7]\nclass = c", fillcolor="#fcefe6"] ;
249 -> 251 ;
252 [label="capital-loos <= 1.626\nentropy = 0.946\nsamples = 11\nvalue = [4, 7]\nclass = l", fillcolor="#aad5f4"] ;
251 -> 252 ;
253 [label="final-weight <= -0.126\nentropy = 0.764\nsamples = 9\nvalue = [2, 7]\nclass = l", fillcolor="#72b9ec"] ;
252 -> 253 ;
254 [label="occupation <= 0.929\nentropy = 0.918\nsamples = 3\nvalue = [2, 1]\nclass = c", fillcolor="#f2c09c"] ;
253 -> 254 ;
255 [label="entropy = 0.0\nsamples = 2\nvalue = [2, 0]\nclass = c", fillcolor="#e58139"] ;
254 -> 255 ;
256 [label="entropy = 0.0\nsamples = 1\nvalue = [0, 1]\nclass = l", fillcolor="#399de5"] ;
254 -> 256 ;
257 [label="entropy = 0.0\nsamples = 6\nvalue = [0, 6]\nclass = l", fillcolor="#399de5"] ;
253 -> 257 ;
258 [label="entropy = 0.0\nsamples = 2\nvalue = [2, 0]\nclass = c", fillcolor="#e58139"] ;
252 -> 258 ;
259 [label="entropy = 0.0\nsamples = 4\nvalue = [4, 0]\nclass = c", fillcolor="#e58139"] ;
251 -> 259 ;
260 [label="age <= 1.387\nentropy = 0.702\nsamples = 21\nvalue = [17, 4]\nclass = c", fillcolor="#eb9f68"] ;
246 -> 260 ;
261 [label="entropy = 0.0\nsamples = 11\nvalue = [11, 0]\nclass = c", fillcolor="#e58139"] ;
260 -> 261 ;
262 [label="hour-per-week <= 0.693\nentropy = 0.971\nsamples = 10\nvalue = [6, 4]\nclass = c", fillcolor="#f6d5bd"] ;
260 -> 262 ;
263 [label="entropy = 0.0\nsamples = 4\nvalue = [4, 0]\nclass = c", fillcolor="#e58139"] ;
262 -> 263 ;
264 [label="hour-per-week <= 1.422\nentropy = 0.918\nsamples = 6\nvalue = [2, 4]\nclass = l", fillcolor="#9ccef2"] ;
262 -> 264 ;
265 [label="entropy = 0.0\nsamples = 3\nvalue = [0, 3]\nclass = l", fillcolor="#399de5"] ;
264 -> 265 ;
266 [label="education-num <= -2.169\nentropy = 0.918\nsamples = 3\nvalue = [2, 1]\nclass = c", fillcolor="#f2c09c"] ;
264 -> 266 ;
267 [label="entropy = 0.0\nsamples = 1\nvalue = [0, 1]\nclass = l", fillcolor="#399de5"] ;
266 -> 267 ;
268 [label="entropy = 0.0\nsamples = 2\nvalue = [2, 0]\nclass = c", fillcolor="#e58139"] ;
266 -> 268 ;
269 [label="age <= 1.754\nentropy = 0.459\nsamples = 31\nvalue = [28, 3]\nclass = c", fillcolor="#e88e4e"] ;
243 -> 269 ;
270 [label="age <= 0.581\nentropy = 0.353\nsamples = 30\nvalue = [28, 2]\nclass = c", fillcolor="#e78a47"] ;
269 -> 270 ;
271 [label="education <= -2.532\nentropy = 0.619\nsamples = 13\nvalue = [11, 2]\nclass = c", fillcolor="#ea985d"] ;
270 -> 271 ;
272 [label="entropy = 0.0\nsamples = 5\nvalue = [5, 0]\nclass = c", fillcolor="#e58139"] ;
271 -> 272 ;
273 [label="hour-per-week <= 0.693\nentropy = 0.811\nsamples = 8\nvalue = [6, 2]\nclass = c", fillcolor="#eeab7b"] ;
271 -> 273 ;
274 [label="entropy = 0.0\nsamples = 1\nvalue = [0, 1]\nclass = l", fillcolor="#399de5"] ;
273 -> 274 ;
275 [label="occupation <= -0.49\nentropy = 0.592\nsamples = 7\nvalue = [6, 1]\nclass = c", fillcolor="#e9965a"] ;
273 -> 275 ;
276 [label="age <= 0.177\nentropy = 1.0\nsamples = 2\nvalue = [1, 1]\nclass = c", fillcolor="#ffffff"] ;
275 -> 276 ;
277 [label="entropy = 0.0\nsamples = 1\nvalue = [1, 0]\nclass = c", fillcolor="#e58139"] ;
276 -> 277 ;
278 [label="entropy = 0.0\nsamples = 1\nvalue = [0, 1]\nclass = l", fillcolor="#399de5"] ;
276 -> 278 ;
279 [label="entropy = 0.0\nsamples = 5\nvalue = [5, 0]\nclass = c", fillcolor="#e58139"] ;
275 -> 279 ;
280 [label="entropy = 0.0\nsamples = 17\nvalue = [17, 0]\nclass = c", fillcolor="#e58139"] ;
270 -> 280 ;
281 [label="entropy = 0.0\nsamples = 1\nvalue = [0, 1]\nclass = l", fillcolor="#399de5"] ;
269 -> 281 ;
282 [label="native-country <= -0.539\nentropy = 0.996\nsamples = 13\nvalue = [7, 6]\nclass = c", fillcolor="#fbede3"] ;
242 -> 282 ;
283 [label="entropy = 0.0\nsamples = 6\nvalue = [6, 0]\nclass = c", fillcolor="#e58139"] ;
282 -> 283 ;
284 [label="hour-per-week <= 2.192\nentropy = 0.592\nsamples = 7\nvalue = [1, 6]\nclass = l", fillcolor="#5aade9"] ;
282 -> 284 ;
285 [label="entropy = 0.0\nsamples = 6\nvalue = [0, 6]\nclass = l", fillcolor="#399de5"] ;
284 -> 285 ;
286 [label="entropy = 0.0\nsamples = 1\nvalue = [1, 0]\nclass = c", fillcolor="#e58139"] ;
284 -> 286 ;
287 [label="final-weight <= -1.532\nentropy = 0.085\nsamples = 94\nvalue = [93, 1]\nclass = c", fillcolor="#e5823b"] ;
47 -> 287 ;
288 [label="entropy = 0.0\nsamples = 1\nvalue = [0, 1]\nclass = l", fillcolor="#399de5"] ;
287 -> 288 ;
289 [label="entropy = 0.0\nsamples = 93\nvalue = [93, 0]\nclass = c", fillcolor="#e58139"] ;
287 -> 289 ;
290 [label="capital-loos <= 4.721\nentropy = 0.99\nsamples = 25\nvalue = [14, 11]\nclass = c", fillcolor="#f9e4d5"] ;
4 -> 290 ;
291 [label="occupation <= 1.52\nentropy = 0.414\nsamples = 12\nvalue = [1, 11]\nclass = l", fillcolor="#4ba6e7"] ;
290 -> 291 ;
292 [label="entropy = 0.0\nsamples = 10\nvalue = [0, 10]\nclass = l", fillcolor="#399de5"] ;
291 -> 292 ;
293 [label="final-weight <= 1.027\nentropy = 1.0\nsamples = 2\nvalue = [1, 1]\nclass = c", fillcolor="#ffffff"] ;
291 -> 293 ;
294 [label="entropy = 0.0\nsamples = 1\nvalue = [1, 0]\nclass = c", fillcolor="#e58139"] ;
293 -> 294 ;
295 [label="entropy = 0.0\nsamples = 1\nvalue = [0, 1]\nclass = l", fillcolor="#399de5"] ;
293 -> 295 ;
296 [label="entropy = 0.0\nsamples = 13\nvalue = [13, 0]\nclass = c", fillcolor="#e58139"] ;
290 -> 296 ;
297 [label="age <= -0.226\nentropy = 0.918\nsamples = 6277\nvalue = [4186, 2091]\nclass = c", fillcolor="#f2c09c"] ;
3 -> 297 ;
298 [label="age <= -1.032\nentropy = 0.746\nsamples = 1990\nvalue = [1567, 423]\nclass = c", fillcolor="#eca36e"] ;
297 -> 298 ;
299 [label="occupation <= 1.402\nentropy = 0.313\nsamples = 213\nvalue = [201, 12]\nclass = c", fillcolor="#e78945"] ;
298 -> 299 ;
300 [label="capital-gain <= 0.346\nentropy = 0.178\nsamples = 187\nvalue = [182, 5]\nclass = c", fillcolor="#e6843e"] ;
299 -> 300 ;
301 [label="hour-per-week <= 2.475\nentropy = 0.15\nsamples = 186\nvalue = [182, 4]\nclass = c", fillcolor="#e6843d"] ;
300 -> 301 ;
302 [label="age <= -1.179\nentropy = 0.12\nsamples = 184\nvalue = [181, 3]\nclass = c", fillcolor="#e5833c"] ;
301 -> 302 ;
303 [label="entropy = 0.0\nsamples = 71\nvalue = [71, 0]\nclass = c", fillcolor="#e58139"] ;
302 -> 303 ;
304 [label="hour-per-week <= 0.329\nentropy = 0.177\nsamples = 113\nvalue = [110, 3]\nclass = c", fillcolor="#e6843e"] ;
302 -> 304 ;
305 [label="occupation <= -1.081\nentropy = 0.095\nsamples = 82\nvalue = [81, 1]\nclass = c", fillcolor="#e5833b"] ;
304 -> 305 ;
306 [label="final-weight <= 1.788\nentropy = 0.469\nsamples = 10\nvalue = [9, 1]\nclass = c", fillcolor="#e88f4f"] ;
305 -> 306 ;
307 [label="entropy = 0.0\nsamples = 9\nvalue = [9, 0]\nclass = c", fillcolor="#e58139"] ;
306 -> 307 ;
308 [label="entropy = 0.0\nsamples = 1\nvalue = [0, 1]\nclass = l", fillcolor="#399de5"] ;
306 -> 308 ;
309 [label="entropy = 0.0\nsamples = 72\nvalue = [72, 0]\nclass = c", fillcolor="#e58139"] ;
305 -> 309 ;
310 [label="final-weight <= -1.305\nentropy = 0.345\nsamples = 31\nvalue = [29, 2]\nclass = c", fillcolor="#e78a47"] ;
304 -> 310 ;
311 [label="hour-per-week <= 0.977\nentropy = 0.918\nsamples = 3\nvalue = [2, 1]\nclass = c", fillcolor="#f2c09c"] ;
310 -> 311 ;
312 [label="entropy = 0.0\nsamples = 2\nvalue = [2, 0]\nclass = c", fillcolor="#e58139"] ;
311 -> 312 ;
313 [label="entropy = 0.0\nsamples = 1\nvalue = [0, 1]\nclass = l", fillcolor="#399de5"] ;
311 -> 313 ;
314 [label="occupation <= 0.219\nentropy = 0.222\nsamples = 28\nvalue = [27, 1]\nclass = c", fillcolor="#e68640"] ;
310 -> 314 ;
315 [label="entropy = 0.0\nsamples = 21\nvalue = [21, 0]\nclass = c", fillcolor="#e58139"] ;
314 -> 315 ;
316 [label="occupation <= 0.81\nentropy = 0.592\nsamples = 7\nvalue = [6, 1]\nclass = c", fillcolor="#e9965a"] ;
314 -> 316 ;
317 [label="race <= -0.784\nentropy = 1.0\nsamples = 2\nvalue = [1, 1]\nclass = c", fillcolor="#ffffff"] ;
316 -> 317 ;
318 [label="entropy = 0.0\nsamples = 1\nvalue = [1, 0]\nclass = c", fillcolor="#e58139"] ;
317 -> 318 ;
319 [label="entropy = 0.0\nsamples = 1\nvalue = [0, 1]\nclass = l", fillcolor="#399de5"] ;
317 -> 319 ;
320 [label="entropy = 0.0\nsamples = 5\nvalue = [5, 0]\nclass = c", fillcolor="#e58139"] ;
316 -> 320 ;
321 [label="education <= 0.698\nentropy = 1.0\nsamples = 2\nvalue = [1, 1]\nclass = c", fillcolor="#ffffff"] ;
301 -> 321 ;
322 [label="entropy = 0.0\nsamples = 1\nvalue = [1, 0]\nclass = c", fillcolor="#e58139"] ;
321 -> 322 ;
323 [label="entropy = 0.0\nsamples = 1\nvalue = [0, 1]\nclass = l", fillcolor="#399de5"] ;
321 -> 323 ;
324 [label="entropy = 0.0\nsamples = 1\nvalue = [0, 1]\nclass = l", fillcolor="#399de5"] ;
300 -> 324 ;
325 [label="hour-per-week <= 0.491\nentropy = 0.84\nsamples = 26\nvalue = [19, 7]\nclass = c", fillcolor="#efaf82"] ;
299 -> 325 ;
326 [label="final-weight <= 0.39\nentropy = 0.323\nsamples = 17\nvalue = [16, 1]\nclass = c", fillcolor="#e78945"] ;
325 -> 326 ;
327 [label="entropy = 0.0\nsamples = 11\nvalue = [11, 0]\nclass = c", fillcolor="#e58139"] ;
326 -> 327 ;
328 [label="final-weight <= 0.425\nentropy = 0.65\nsamples = 6\nvalue = [5, 1]\nclass = c", fillcolor="#ea9a61"] ;
326 -> 328 ;
329 [label="entropy = 0.0\nsamples = 1\nvalue = [0, 1]\nclass = l", fillcolor="#399de5"] ;
328 -> 329 ;
330 [label="entropy = 0.0\nsamples = 5\nvalue = [5, 0]\nclass = c", fillcolor="#e58139"] ;
328 -> 330 ;
331 [label="hour-per-week <= 1.179\nentropy = 0.918\nsamples = 9\nvalue = [3, 6]\nclass = l", fillcolor="#9ccef2"] ;
325 -> 331 ;
332 [label="entropy = 0.0\nsamples = 4\nvalue = [0, 4]\nclass = l", fillcolor="#399de5"] ;
331 -> 332 ;
333 [label="final-weight <= -0.724\nentropy = 0.971\nsamples = 5\nvalue = [3, 2]\nclass = c", fillcolor="#f6d5bd"] ;
331 -> 333 ;
334 [label="education-num <= -0.226\nentropy = 0.918\nsamples = 3\nvalue = [1, 2]\nclass = l", fillcolor="#9ccef2"] ;
333 -> 334 ;
335 [label="entropy = 0.0\nsamples = 1\nvalue = [1, 0]\nclass = c", fillcolor="#e58139"] ;
334 -> 335 ;
336 [label="entropy = 0.0\nsamples = 2\nvalue = [0, 2]\nclass = l", fillcolor="#399de5"] ;
334 -> 336 ;
337 [label="entropy = 0.0\nsamples = 2\nvalue = [2, 0]\nclass = c", fillcolor="#e58139"] ;
333 -> 337 ;
338 [label="capital-loos <= 4.235\nentropy = 0.78\nsamples = 1777\nvalue = [1366, 411]\nclass = c", fillcolor="#eda775"] ;
298 -> 338 ;
339 [label="hour-per-week <= -0.076\nentropy = 0.759\nsamples = 1728\nvalue = [1349, 379]\nclass = c", fillcolor="#eca471"] ;
338 -> 339 ;
340 [label="final-weight <= -1.539\nentropy = 0.299\nsamples = 113\nvalue = [107, 6]\nclass = c", fillcolor="#e68844"] ;
339 -> 340 ;
341 [label="entropy = 0.0\nsamples = 1\nvalue = [0, 1]\nclass = l", fillcolor="#399de5"] ;
340 -> 341 ;
342 [label="native-country <= -4.565\nentropy = 0.263\nsamples = 112\nvalue = [107, 5]\nclass = c", fillcolor="#e68742"] ;
340 -> 342 ;
343 [label="age <= -0.446\nentropy = 1.0\nsamples = 2\nvalue = [1, 1]\nclass = c", fillcolor="#ffffff"] ;
342 -> 343 ;
344 [label="entropy = 0.0\nsamples = 1\nvalue = [0, 1]\nclass = l", fillcolor="#399de5"] ;
343 -> 344 ;
345 [label="entropy = 0.0\nsamples = 1\nvalue = [1, 0]\nclass = c", fillcolor="#e58139"] ;
343 -> 345 ;
346 [label="final-weight <= 0.096\nentropy = 0.225\nsamples = 110\nvalue = [106, 4]\nclass = c", fillcolor="#e68640"] ;
342 -> 346 ;
347 [label="entropy = 0.0\nsamples = 59\nvalue = [59, 0]\nclass = c", fillcolor="#e58139"] ;
346 -> 347 ;
348 [label="final-weight <= 0.185\nentropy = 0.397\nsamples = 51\nvalue = [47, 4]\nclass = c", fillcolor="#e78c4a"] ;
346 -> 348 ;
349 [label="hour-per-week <= -0.319\nentropy = 0.811\nsamples = 4\nvalue = [1, 3]\nclass = l", fillcolor="#7bbeee"] ;
348 -> 349 ;
350 [label="entropy = 0.0\nsamples = 3\nvalue = [0, 3]\nclass = l", fillcolor="#399de5"] ;
349 -> 350 ;
351 [label="entropy = 0.0\nsamples = 1\nvalue = [1, 0]\nclass = c", fillcolor="#e58139"] ;
349 -> 351 ;
352 [label="final-weight <= 2.997\nentropy = 0.149\nsamples = 47\nvalue = [46, 1]\nclass = c", fillcolor="#e6843d"] ;
348 -> 352 ;
353 [label="entropy = 0.0\nsamples = 44\nvalue = [44, 0]\nclass = c", fillcolor="#e58139"] ;
352 -> 353 ;
354 [label="education-num <= 0.163\nentropy = 0.918\nsamples = 3\nvalue = [2, 1]\nclass = c", fillcolor="#f2c09c"] ;
352 -> 354 ;
355 [label="entropy = 0.0\nsamples = 2\nvalue = [2, 0]\nclass = c", fillcolor="#e58139"] ;
354 -> 355 ;
356 [label="entropy = 0.0\nsamples = 1\nvalue = [0, 1]\nclass = l", fillcolor="#399de5"] ;
354 -> 356 ;
357 [label="education-num <= -0.226\nentropy = 0.78\nsamples = 1615\nvalue = [1242, 373]\nclass = c", fillcolor="#eda774"] ;
339 -> 357 ;
358 [label="hour-per-week <= 0.896\nentropy = 0.696\nsamples = 917\nvalue = [745, 172]\nclass = c", fillcolor="#eb9e67"] ;
357 -> 358 ;
359 [label="final-weight <= -1.187\nentropy = 0.644\nsamples = 768\nvalue = [642, 126]\nclass = c", fillcolor="#ea9a60"] ;
358 -> 359 ;
360 [label="final-weight <= -1.494\nentropy = 0.273\nsamples = 64\nvalue = [61, 3]\nclass = c", fillcolor="#e68743"] ;
359 -> 360 ;
361 [label="final-weight <= -1.586\nentropy = 0.629\nsamples = 19\nvalue = [16, 3]\nclass = c", fillcolor="#ea995e"] ;
360 -> 361 ;
362 [label="entropy = 0.0\nsamples = 1\nvalue = [0, 1]\nclass = l", fillcolor="#399de5"] ;
361 -> 362 ;
363 [label="hour-per-week <= 0.289\nentropy = 0.503\nsamples = 18\nvalue = [16, 2]\nclass = c", fillcolor="#e89152"] ;
361 -> 363 ;
364 [label="entropy = 0.0\nsamples = 13\nvalue = [13, 0]\nclass = c", fillcolor="#e58139"] ;
363 -> 364 ;
365 [label="final-weight <= -1.522\nentropy = 0.971\nsamples = 5\nvalue = [3, 2]\nclass = c", fillcolor="#f6d5bd"] ;
363 -> 365 ;
366 [label="entropy = 0.0\nsamples = 2\nvalue = [2, 0]\nclass = c", fillcolor="#e58139"] ;
365 -> 366 ;
367 [label="workclass <= 1.12\nentropy = 0.918\nsamples = 3\nvalue = [1, 2]\nclass = l", fillcolor="#9ccef2"] ;
365 -> 367 ;
368 [label="entropy = 0.0\nsamples = 2\nvalue = [0, 2]\nclass = l", fillcolor="#399de5"] ;
367 -> 368 ;
369 [label="entropy = 0.0\nsamples = 1\nvalue = [1, 0]\nclass = c", fillcolor="#e58139"] ;
367 -> 369 ;
370 [label="entropy = 0.0\nsamples = 45\nvalue = [45, 0]\nclass = c", fillcolor="#e58139"] ;
360 -> 370 ;
371 [label="race <= -0.195\nentropy = 0.668\nsamples = 704\nvalue = [581, 123]\nclass = c", fillcolor="#eb9c63"] ;
359 -> 371 ;
372 [label="final-weight <= -0.248\nentropy = 0.334\nsamples = 81\nvalue = [76, 5]\nclass = c", fillcolor="#e78946"] ;
371 -> 372 ;
373 [label="final-weight <= -0.323\nentropy = 0.691\nsamples = 27\nvalue = [22, 5]\nclass = c", fillcolor="#eb9e66"] ;
372 -> 373 ;
374 [label="final-weight <= -0.875\nentropy = 0.529\nsamples = 25\nvalue = [22, 3]\nclass = c", fillcolor="#e99254"] ;
373 -> 374 ;
375 [label="race <= -2.552\nentropy = 0.881\nsamples = 10\nvalue = [7, 3]\nclass = c", fillcolor="#f0b78e"] ;
374 -> 375 ;
376 [label="native-country <= -0.284\nentropy = 1.0\nsamples = 6\nvalue = [3, 3]\nclass = c", fillcolor="#ffffff"] ;
375 -> 376 ;
377 [label="entropy = 0.0\nsamples = 2\nvalue = [2, 0]\nclass = c", fillcolor="#e58139"] ;
376 -> 377 ;
378 [label="occupation <= -0.608\nentropy = 0.811\nsamples = 4\nvalue = [1, 3]\nclass = l", fillcolor="#7bbeee"] ;
376 -> 378 ;
379 [label="entropy = 0.0\nsamples = 1\nvalue = [1, 0]\nclass = c", fillcolor="#e58139"] ;
378 -> 379 ;
380 [label="entropy = 0.0\nsamples = 3\nvalue = [0, 3]\nclass = l", fillcolor="#399de5"] ;
378 -> 380 ;
381 [label="entropy = 0.0\nsamples = 4\nvalue = [4, 0]\nclass = c", fillcolor="#e58139"] ;
375 -> 381 ;
382 [label="entropy = 0.0\nsamples = 15\nvalue = [15, 0]\nclass = c", fillcolor="#e58139"] ;
374 -> 382 ;
383 [label="entropy = 0.0\nsamples = 2\nvalue = [0, 2]\nclass = l", fillcolor="#399de5"] ;
373 -> 383 ;
384 [label="entropy = 0.0\nsamples = 54\nvalue = [54, 0]\nclass = c", fillcolor="#e58139"] ;
372 -> 384 ;
385 [label="capital-gain <= 0.277\nentropy = 0.7\nsamples = 623\nvalue = [505, 118]\nclass = c", fillcolor="#eb9e67"] ;
371 -> 385 ;
386 [label="capital-gain <= 0.259\nentropy = 0.714\nsamples = 602\nvalue = [484, 118]\nclass = c", fillcolor="#eba069"] ;
385 -> 386 ;
387 [label="final-weight <= -1.177\nentropy = 0.706\nsamples = 599\nvalue = [484, 115]\nclass = c", fillcolor="#eb9f68"] ;
386 -> 387 ;
388 [label="entropy = 0.0\nsamples = 2\nvalue = [0, 2]\nclass = l", fillcolor="#399de5"] ;
387 -> 388 ;
389 [label="age <= -0.739\nentropy = 0.7\nsamples = 597\nvalue = [484, 113]\nclass = c", fillcolor="#eb9e67"] ;
387 -> 389 ;
390 [label="final-weight <= 0.01\nentropy = 0.537\nsamples = 155\nvalue = [136, 19]\nclass = c", fillcolor="#e99355"] ;
389 -> 390 ;
391 [label="final-weight <= 0.001\nentropy = 0.645\nsamples = 73\nvalue = [61, 12]\nclass = c", fillcolor="#ea9a60"] ;
390 -> 391 ;
392 [label="education <= -0.981\nentropy = 0.592\nsamples = 70\nvalue = [60, 10]\nclass = c", fillcolor="#e9965a"] ;
391 -> 392 ;
393 [label="entropy = 0.0\nsamples = 1\nvalue = [0, 1]\nclass = l", fillcolor="#399de5"] ;
392 -> 393 ;
394 [label="occupation <= 1.638\nentropy = 0.559\nsamples = 69\nvalue = [60, 9]\nclass = c", fillcolor="#e99457"] ;
392 -> 394 ;
395 [label="occupation <= 0.219\nentropy = 0.474\nsamples = 59\nvalue = [53, 6]\nclass = c", fillcolor="#e88f4f"] ;
394 -> 395 ;
396 [label="final-weight <= -1.027\nentropy = 0.575\nsamples = 44\nvalue = [38, 6]\nclass = c", fillcolor="#e99558"] ;
395 -> 396 ;
397 [label="entropy = 0.0\nsamples = 3\nvalue = [3, 0]\nclass = c", fillcolor="#e58139"] ;
396 -> 397 ;
398 [label="final-weight <= -1.009\nentropy = 0.601\nsamples = 41\nvalue = [35, 6]\nclass = c", fillcolor="#e9975b"] ;
396 -> 398 ;
399 [label="entropy = 0.0\nsamples = 1\nvalue = [0, 1]\nclass = l", fillcolor="#399de5"] ;
398 -> 399 ;
400 [label="final-weight <= -0.701\nentropy = 0.544\nsamples = 40\nvalue = [35, 5]\nclass = c", fillcolor="#e99355"] ;
398 -> 400 ;
401 [label="entropy = 0.0\nsamples = 9\nvalue = [9, 0]\nclass = c", fillcolor="#e58139"] ;
400 -> 401 ;
402 [label="final-weight <= -0.676\nentropy = 0.637\nsamples = 31\nvalue = [26, 5]\nclass = c", fillcolor="#ea995f"] ;
400 -> 402 ;
403 [label="entropy = 0.0\nsamples = 1\nvalue = [0, 1]\nclass = l", fillcolor="#399de5"] ;
402 -> 403 ;
404 [label="native-country <= -0.667\nentropy = 0.567\nsamples = 30\nvalue = [26, 4]\nclass = c", fillcolor="#e99457"] ;
402 -> 404 ;
405 [label="age <= -0.849\nentropy = 1.0\nsamples = 2\nvalue = [1, 1]\nclass = c", fillcolor="#ffffff"] ;
404 -> 405 ;
406 [label="entropy = 0.0\nsamples = 1\nvalue = [1, 0]\nclass = c", fillcolor="#e58139"] ;
405 -> 406 ;
407 [label="entropy = 0.0\nsamples = 1\nvalue = [0, 1]\nclass = l", fillcolor="#399de5"] ;
405 -> 407 ;
408 [label="final-weight <= -0.135\nentropy = 0.491\nsamples = 28\nvalue = [25, 3]\nclass = c", fillcolor="#e89051"] ;
404 -> 408 ;
409 [label="final-weight <= -0.53\nentropy = 0.31\nsamples = 18\nvalue = [17, 1]\nclass = c", fillcolor="#e78845"] ;
408 -> 409 ;
410 [label="final-weight <= -0.591\nentropy = 0.811\nsamples = 4\nvalue = [3, 1]\nclass = c", fillcolor="#eeab7b"] ;
409 -> 410 ;
411 [label="entropy = 0.0\nsamples = 3\nvalue = [3, 0]\nclass = c", fillcolor="#e58139"] ;
410 -> 411 ;
412 [label="entropy = 0.0\nsamples = 1\nvalue = [0, 1]\nclass = l", fillcolor="#399de5"] ;
410 -> 412 ;
413 [label="entropy = 0.0\nsamples = 14\nvalue = [14, 0]\nclass = c", fillcolor="#e58139"] ;
409 -> 413 ;
414 [label="final-weight <= -0.1\nentropy = 0.722\nsamples = 10\nvalue = [8, 2]\nclass = c", fillcolor="#eca06a"] ;
408 -> 414 ;
415 [label="entropy = 0.0\nsamples = 1\nvalue = [0, 1]\nclass = l", fillcolor="#399de5"] ;
414 -> 415 ;
416 [label="hour-per-week <= 0.37\nentropy = 0.503\nsamples = 9\nvalue = [8, 1]\nclass = c", fillcolor="#e89152"] ;
414 -> 416 ;
417 [label="entropy = 0.0\nsamples = 7\nvalue = [7, 0]\nclass = c", fillcolor="#e58139"] ;
416 -> 417 ;
418 [label="final-weight <= -0.051\nentropy = 1.0\nsamples = 2\nvalue = [1, 1]\nclass = c", fillcolor="#ffffff"] ;
416 -> 418 ;
419 [label="entropy = 0.0\nsamples = 1\nvalue = [1, 0]\nclass = c", fillcolor="#e58139"] ;
418 -> 419 ;
420 [label="entropy = 0.0\nsamples = 1\nvalue = [0, 1]\nclass = l", fillcolor="#399de5"] ;
418 -> 420 ;
421 [label="entropy = 0.0\nsamples = 15\nvalue = [15, 0]\nclass = c", fillcolor="#e58139"] ;
395 -> 421 ;
422 [label="final-weight <= -0.354\nentropy = 0.881\nsamples = 10\nvalue = [7, 3]\nclass = c", fillcolor="#f0b78e"] ;
394 -> 422 ;
423 [label="final-weight <= -0.589\nentropy = 0.971\nsamples = 5\nvalue = [2, 3]\nclass = l", fillcolor="#bddef6"] ;
422 -> 423 ;
424 [label="final-weight <= -0.878\nentropy = 0.918\nsamples = 3\nvalue = [2, 1]\nclass = c", fillcolor="#f2c09c"] ;
423 -> 424 ;
425 [label="entropy = 0.0\nsamples = 1\nvalue = [0, 1]\nclass = l", fillcolor="#399de5"] ;
424 -> 425 ;
426 [label="entropy = 0.0\nsamples = 2\nvalue = [2, 0]\nclass = c", fillcolor="#e58139"] ;
424 -> 426 ;
427 [label="entropy = 0.0\nsamples = 2\nvalue = [0, 2]\nclass = l", fillcolor="#399de5"] ;
423 -> 427 ;
428 [label="entropy = 0.0\nsamples = 5\nvalue = [5, 0]\nclass = c", fillcolor="#e58139"] ;
422 -> 428 ;
429 [label="occupation <= 0.692\nentropy = 0.918\nsamples = 3\nvalue = [1, 2]\nclass = l", fillcolor="#9ccef2"] ;
391 -> 429 ;
430 [label="entropy = 0.0\nsamples = 1\nvalue = [1, 0]\nclass = c", fillcolor="#e58139"] ;
429 -> 430 ;
431 [label="entropy = 0.0\nsamples = 2\nvalue = [0, 2]\nclass = l", fillcolor="#399de5"] ;
429 -> 431 ;
432 [label="final-weight <= 0.407\nentropy = 0.421\nsamples = 82\nvalue = [75, 7]\nclass = c", fillcolor="#e78d4b"] ;
390 -> 432 ;
433 [label="entropy = 0.0\nsamples = 34\nvalue = [34, 0]\nclass = c", fillcolor="#e58139"] ;
432 -> 433 ;
434 [label="final-weight <= 0.429\nentropy = 0.599\nsamples = 48\nvalue = [41, 7]\nclass = c", fillcolor="#e9975b"] ;
432 -> 434 ;
435 [label="entropy = 0.0\nsamples = 1\nvalue = [0, 1]\nclass = l", fillcolor="#399de5"] ;
434 -> 435 ;
436 [label="final-weight <= 0.695\nentropy = 0.551\nsamples = 47\nvalue = [41, 6]\nclass = c", fillcolor="#e99356"] ;
434 -> 436 ;
437 [label="entropy = 0.0\nsamples = 13\nvalue = [13, 0]\nclass = c", fillcolor="#e58139"] ;
436 -> 437 ;
438 [label="final-weight <= 0.845\nentropy = 0.672\nsamples = 34\nvalue = [28, 6]\nclass = c", fillcolor="#eb9c63"] ;
436 -> 438 ;
439 [label="hour-per-week <= 0.167\nentropy = 0.918\nsamples = 6\nvalue = [2, 4]\nclass = l", fillcolor="#9ccef2"] ;
438 -> 439 ;
440 [label="workclass <= -0.597\nentropy = 0.918\nsamples = 3\nvalue = [2, 1]\nclass = c", fillcolor="#f2c09c"] ;
439 -> 440 ;
441 [label="entropy = 0.0\nsamples = 1\nvalue = [0, 1]\nclass = l", fillcolor="#399de5"] ;
440 -> 441 ;
442 [label="entropy = 0.0\nsamples = 2\nvalue = [2, 0]\nclass = c", fillcolor="#e58139"] ;
440 -> 442 ;
443 [label="entropy = 0.0\nsamples = 3\nvalue = [0, 3]\nclass = l", fillcolor="#399de5"] ;
439 -> 443 ;
444 [label="age <= -0.886\nentropy = 0.371\nsamples = 28\nvalue = [26, 2]\nclass = c", fillcolor="#e78b48"] ;
438 -> 444 ;
445 [label="entropy = 0.0\nsamples = 16\nvalue = [16, 0]\nclass = c", fillcolor="#e58139"] ;
444 -> 445 ;
446 [label="occupation <= -0.254\nentropy = 0.65\nsamples = 12\nvalue = [10, 2]\nclass = c", fillcolor="#ea9a61"] ;
444 -> 446 ;
447 [label="native-country <= -2.712\nentropy = 0.863\nsamples = 7\nvalue = [5, 2]\nclass = c", fillcolor="#efb388"] ;
446 -> 447 ;
448 [label="entropy = 0.0\nsamples = 1\nvalue = [0, 1]\nclass = l", fillcolor="#399de5"] ;
447 -> 448 ;
449 [label="hour-per-week <= 0.572\nentropy = 0.65\nsamples = 6\nvalue = [5, 1]\nclass = c", fillcolor="#ea9a61"] ;
447 -> 449 ;
450 [label="entropy = 0.0\nsamples = 5\nvalue = [5, 0]\nclass = c", fillcolor="#e58139"] ;
449 -> 450 ;
451 [label="entropy = 0.0\nsamples = 1\nvalue = [0, 1]\nclass = l", fillcolor="#399de5"] ;
449 -> 451 ;
452 [label="entropy = 0.0\nsamples = 5\nvalue = [5, 0]\nclass = c", fillcolor="#e58139"] ;
446 -> 452 ;
453 [label="native-country <= 0.419\nentropy = 0.747\nsamples = 442\nvalue = [348, 94]\nclass = c", fillcolor="#eca36e"] ;
389 -> 453 ;
454 [label="age <= -0.299\nentropy = 0.743\nsamples = 441\nvalue = [348, 93]\nclass = c", fillcolor="#eca36e"] ;
453 -> 454 ;
455 [label="final-weight <= 2.806\nentropy = 0.768\nsamples = 379\nvalue = [294, 85]\nclass = c", fillcolor="#eda572"] ;
454 -> 455 ;
456 [label="final-weight <= 2.484\nentropy = 0.773\nsamples = 374\nvalue = [289, 85]\nclass = c", fillcolor="#eda673"] ;
455 -> 456 ;
457 [label="final-weight <= 2.18\nentropy = 0.77\nsamples = 373\nvalue = [289, 84]\nclass = c", fillcolor="#eda673"] ;
456 -> 457 ;
458 [label="final-weight <= 1.985\nentropy = 0.775\nsamples = 368\nvalue = [284, 84]\nclass = c", fillcolor="#eda674"] ;
457 -> 458 ;
459 [label="final-weight <= -0.907\nentropy = 0.767\nsamples = 366\nvalue = [284, 82]\nclass = c", fillcolor="#eda572"] ;
458 -> 459 ;
460 [label="occupation <= 0.81\nentropy = 0.454\nsamples = 21\nvalue = [19, 2]\nclass = c", fillcolor="#e88e4e"] ;
459 -> 460 ;
461 [label="entropy = 0.0\nsamples = 19\nvalue = [19, 0]\nclass = c", fillcolor="#e58139"] ;
460 -> 461 ;
462 [label="entropy = 0.0\nsamples = 2\nvalue = [0, 2]\nclass = l", fillcolor="#399de5"] ;
460 -> 462 ;
463 [label="final-weight <= -0.899\nentropy = 0.781\nsamples = 345\nvalue = [265, 80]\nclass = c", fillcolor="#eda775"] ;
459 -> 463 ;
464 [label="entropy = 0.0\nsamples = 2\nvalue = [0, 2]\nclass = l", fillcolor="#399de5"] ;
463 -> 464 ;
465 [label="final-weight <= 0.09\nentropy = 0.773\nsamples = 343\nvalue = [265, 78]\nclass = c", fillcolor="#eda673"] ;
463 -> 465 ;
466 [label="final-weight <= -0.045\nentropy = 0.726\nsamples = 203\nvalue = [162, 41]\nclass = c", fillcolor="#eca16b"] ;
465 -> 466 ;
467 [label="final-weight <= -0.09\nentropy = 0.764\nsamples = 171\nvalue = [133, 38]\nclass = c", fillcolor="#eca572"] ;
466 -> 467 ;
468 [label="final-weight <= -0.114\nentropy = 0.739\nsamples = 163\nvalue = [129, 34]\nclass = c", fillcolor="#eca26d"] ;
467 -> 468 ;
469 [label="final-weight <= -0.124\nentropy = 0.756\nsamples = 156\nvalue = [122, 34]\nclass = c", fillcolor="#eca470"] ;
468 -> 469 ;
470 [label="final-weight <= -0.156\nentropy = 0.747\nsamples = 155\nvalue = [122, 33]\nclass = c", fillcolor="#eca36f"] ;
469 -> 470 ;
471 [label="final-weight <= -0.158\nentropy = 0.771\nsamples = 146\nvalue = [113, 33]\nclass = c", fillcolor="#eda673"] ;
470 -> 471 ;
472 [label="final-weight <= -0.17\nentropy = 0.761\nsamples = 145\nvalue = [113, 32]\nclass = c", fillcolor="#eca571"] ;
471 -> 472 ;
473 [label="final-weight <= -0.501\nentropy = 0.773\nsamples = 141\nvalue = [109, 32]\nclass = c", fillcolor="#eda673"] ;
472 -> 473 ;
474 [label="hour-per-week <= 0.329\nentropy = 0.679\nsamples = 78\nvalue = [64, 14]\nclass = c", fillcolor="#eb9d64"] ;
473 -> 474 ;
475 [label="final-weight <= -0.71\nentropy = 0.768\nsamples = 58\nvalue = [45, 13]\nclass = c", fillcolor="#eda572"] ;
474 -> 475 ;
476 [label="final-weight <= -0.729\nentropy = 0.932\nsamples = 23\nvalue = [15, 8]\nclass = c", fillcolor="#f3c4a3"] ;
475 -> 476 ;
477 [label="occupation <= 0.929\nentropy = 0.742\nsamples = 19\nvalue = [15, 4]\nclass = c", fillcolor="#eca36e"] ;
476 -> 477 ;
478 [label="occupation <= 0.574\nentropy = 0.918\nsamples = 12\nvalue = [8, 4]\nclass = c", fillcolor="#f2c09c"] ;
477 -> 478 ;
479 [label="occupation <= -0.372\nentropy = 0.845\nsamples = 11\nvalue = [8, 3]\nclass = c", fillcolor="#efb083"] ;
478 -> 479 ;
480 [label="workclass <= 0.433\nentropy = 0.985\nsamples = 7\nvalue = [4, 3]\nclass = c", fillcolor="#f8e0ce"] ;
479 -> 480 ;
481 [label="native-country <= -1.498\nentropy = 0.722\nsamples = 5\nvalue = [4, 1]\nclass = c", fillcolor="#eca06a"] ;
480 -> 481 ;
482 [label="entropy = 0.0\nsamples = 1\nvalue = [0, 1]\nclass = l", fillcolor="#399de5"] ;
481 -> 482 ;
483 [label="entropy = 0.0\nsamples = 4\nvalue = [4, 0]\nclass = c", fillcolor="#e58139"] ;
481 -> 483 ;
484 [label="entropy = 0.0\nsamples = 2\nvalue = [0, 2]\nclass = l", fillcolor="#399de5"] ;
480 -> 484 ;
485 [label="entropy = 0.0\nsamples = 4\nvalue = [4, 0]\nclass = c", fillcolor="#e58139"] ;
479 -> 485 ;
486 [label="entropy = 0.0\nsamples = 1\nvalue = [0, 1]\nclass = l", fillcolor="#399de5"] ;
478 -> 486 ;
487 [label="entropy = 0.0\nsamples = 7\nvalue = [7, 0]\nclass = c", fillcolor="#e58139"] ;
477 -> 487 ;
488 [label="entropy = 0.0\nsamples = 4\nvalue = [0, 4]\nclass = l", fillcolor="#399de5"] ;
476 -> 488 ;
489 [label="final-weight <= -0.673\nentropy = 0.592\nsamples = 35\nvalue = [30, 5]\nclass = c", fillcolor="#e9965a"] ;
475 -> 489 ;
490 [label="entropy = 0.0\nsamples = 10\nvalue = [10, 0]\nclass = c", fillcolor="#e58139"] ;
489 -> 490 ;
491 [label="workclass <= -0.597\nentropy = 0.722\nsamples = 25\nvalue = [20, 5]\nclass = c", fillcolor="#eca06a"] ;
489 -> 491 ;
492 [label="entropy = 0.0\nsamples = 1\nvalue = [0, 1]\nclass = l", fillcolor="#399de5"] ;
491 -> 492 ;
493 [label="occupation <= 1.165\nentropy = 0.65\nsamples = 24\nvalue = [20, 4]\nclass = c", fillcolor="#ea9a61"] ;
491 -> 493 ;
494 [label="age <= -0.373\nentropy = 0.323\nsamples = 17\nvalue = [16, 1]\nclass = c", fillcolor="#e78945"] ;
493 -> 494 ;
495 [label="entropy = 0.0\nsamples = 16\nvalue = [16, 0]\nclass = c", fillcolor="#e58139"] ;
494 -> 495 ;
496 [label="entropy = 0.0\nsamples = 1\nvalue = [0, 1]\nclass = l", fillcolor="#399de5"] ;
494 -> 496 ;
497 [label="age <= -0.373\nentropy = 0.985\nsamples = 7\nvalue = [4, 3]\nclass = c", fillcolor="#f8e0ce"] ;
493 -> 497 ;
498 [label="final-weight <= -0.668\nentropy = 0.971\nsamples = 5\nvalue = [2, 3]\nclass = l", fillcolor="#bddef6"] ;
497 -> 498 ;
499 [label="entropy = 0.0\nsamples = 1\nvalue = [0, 1]\nclass = l", fillcolor="#399de5"] ;
498 -> 499 ;
500 [label="final-weight <= -0.637\nentropy = 1.0\nsamples = 4\nvalue = [2, 2]\nclass = c", fillcolor="#ffffff"] ;
498 -> 500 ;
501 [label="entropy = 0.0\nsamples = 1\nvalue = [1, 0]\nclass = c", fillcolor="#e58139"] ;
500 -> 501 ;
502 [label="education-num <= -0.614\nentropy = 0.918\nsamples = 3\nvalue = [1, 2]\nclass = l", fillcolor="#9ccef2"] ;
500 -> 502 ;
503 [label="entropy = 0.0\nsamples = 1\nvalue = [0, 1]\nclass = l", fillcolor="#399de5"] ;
502 -> 503 ;
504 [label="occupation <= 1.52\nentropy = 1.0\nsamples = 2\nvalue = [1, 1]\nclass = c", fillcolor="#ffffff"] ;
502 -> 504 ;
505 [label="entropy = 0.0\nsamples = 1\nvalue = [0, 1]\nclass = l", fillcolor="#399de5"] ;
504 -> 505 ;
506 [label="entropy = 0.0\nsamples = 1\nvalue = [1, 0]\nclass = c", fillcolor="#e58139"] ;
504 -> 506 ;
507 [label="entropy = 0.0\nsamples = 2\nvalue = [2, 0]\nclass = c", fillcolor="#e58139"] ;
497 -> 507 ;
508 [label="workclass <= 1.464\nentropy = 0.286\nsamples = 20\nvalue = [19, 1]\nclass = c", fillcolor="#e68843"] ;
474 -> 508 ;
509 [label="entropy = 0.0\nsamples = 19\nvalue = [19, 0]\nclass = c", fillcolor="#e58139"] ;
508 -> 509 ;
510 [label="entropy = 0.0\nsamples = 1\nvalue = [0, 1]\nclass = l", fillcolor="#399de5"] ;
508 -> 510 ;
511 [label="final-weight <= -0.474\nentropy = 0.863\nsamples = 63\nvalue = [45, 18]\nclass = c", fillcolor="#efb388"] ;
473 -> 511 ;
512 [label="entropy = 0.0\nsamples = 3\nvalue = [0, 3]\nclass = l", fillcolor="#399de5"] ;
511 -> 512 ;
513 [label="hour-per-week <= 0.167\nentropy = 0.811\nsamples = 60\nvalue = [45, 15]\nclass = c", fillcolor="#eeab7b"] ;
511 -> 513 ;
514 [label="final-weight <= -0.346\nentropy = 0.629\nsamples = 38\nvalue = [32, 6]\nclass = c", fillcolor="#ea995e"] ;
513 -> 514 ;
515 [label="final-weight <= -0.436\nentropy = 0.971\nsamples = 10\nvalue = [6, 4]\nclass = c", fillcolor="#f6d5bd"] ;
514 -> 515 ;
516 [label="entropy = 0.0\nsamples = 2\nvalue = [2, 0]\nclass = c", fillcolor="#e58139"] ;
515 -> 516 ;
517 [label="occupation <= -0.49\nentropy = 1.0\nsamples = 8\nvalue = [4, 4]\nclass = c", fillcolor="#ffffff"] ;
515 -> 517 ;
518 [label="final-weight <= -0.351\nentropy = 0.811\nsamples = 4\nvalue = [3, 1]\nclass = c", fillcolor="#eeab7b"] ;
517 -> 518 ;
519 [label="entropy = 0.0\nsamples = 3\nvalue = [3, 0]\nclass = c", fillcolor="#e58139"] ;
518 -> 519 ;
520 [label="entropy = 0.0\nsamples = 1\nvalue = [0, 1]\nclass = l", fillcolor="#399de5"] ;
518 -> 520 ;
521 [label="hour-per-week <= 0.046\nentropy = 0.811\nsamples = 4\nvalue = [1, 3]\nclass = l", fillcolor="#7bbeee"] ;
517 -> 521 ;
522 [label="entropy = 0.0\nsamples = 3\nvalue = [0, 3]\nclass = l", fillcolor="#399de5"] ;
521 -> 522 ;
523 [label="entropy = 0.0\nsamples = 1\nvalue = [1, 0]\nclass = c", fillcolor="#e58139"] ;
521 -> 523 ;
524 [label="age <= -0.592\nentropy = 0.371\nsamples = 28\nvalue = [26, 2]\nclass = c", fillcolor="#e78b48"] ;
514 -> 524 ;
525 [label="workclass <= -0.94\nentropy = 0.722\nsamples = 10\nvalue = [8, 2]\nclass = c", fillcolor="#eca06a"] ;
524 -> 525 ;
526 [label="entropy = 0.0\nsamples = 1\nvalue = [0, 1]\nclass = l", fillcolor="#399de5"] ;
525 -> 526 ;
527 [label="occupation <= -0.254\nentropy = 0.503\nsamples = 9\nvalue = [8, 1]\nclass = c", fillcolor="#e89152"] ;
525 -> 527 ;
528 [label="workclass <= 0.777\nentropy = 0.918\nsamples = 3\nvalue = [2, 1]\nclass = c", fillcolor="#f2c09c"] ;
527 -> 528 ;
529 [label="entropy = 0.0\nsamples = 1\nvalue = [0, 1]\nclass = l", fillcolor="#399de5"] ;
528 -> 529 ;
530 [label="entropy = 0.0\nsamples = 2\nvalue = [2, 0]\nclass = c", fillcolor="#e58139"] ;
528 -> 530 ;
531 [label="entropy = 0.0\nsamples = 6\nvalue = [6, 0]\nclass = c", fillcolor="#e58139"] ;
527 -> 531 ;
532 [label="entropy = 0.0\nsamples = 18\nvalue = [18, 0]\nclass = c", fillcolor="#e58139"] ;
524 -> 532 ;
533 [label="final-weight <= -0.35\nentropy = 0.976\nsamples = 22\nvalue = [13, 9]\nclass = c", fillcolor="#f7d8c2"] ;
513 -> 533 ;
534 [label="entropy = 0.0\nsamples = 5\nvalue = [5, 0]\nclass = c", fillcolor="#e58139"] ;
533 -> 534 ;
535 [label="final-weight <= -0.324\nentropy = 0.998\nsamples = 17\nvalue = [8, 9]\nclass = l", fillcolor="#e9f4fc"] ;
533 -> 535 ;
536 [label="entropy = 0.0\nsamples = 3\nvalue = [0, 3]\nclass = l", fillcolor="#399de5"] ;
535 -> 536 ;
537 [label="occupation <= -1.081\nentropy = 0.985\nsamples = 14\nvalue = [8, 6]\nclass = c", fillcolor="#f8e0ce"] ;
535 -> 537 ;
538 [label="entropy = 0.0\nsamples = 2\nvalue = [0, 2]\nclass = l", fillcolor="#399de5"] ;
537 -> 538 ;
539 [label="final-weight <= -0.301\nentropy = 0.918\nsamples = 12\nvalue = [8, 4]\nclass = c", fillcolor="#f2c09c"] ;
537 -> 539 ;
540 [label="entropy = 0.0\nsamples = 3\nvalue = [3, 0]\nclass = c", fillcolor="#e58139"] ;
539 -> 540 ;
541 [label="final-weight <= -0.268\nentropy = 0.991\nsamples = 9\nvalue = [5, 4]\nclass = c", fillcolor="#fae6d7"] ;
539 -> 541 ;
542 [label="entropy = 0.0\nsamples = 3\nvalue = [0, 3]\nclass = l", fillcolor="#399de5"] ;
541 -> 542 ;
543 [label="final-weight <= -0.179\nentropy = 0.65\nsamples = 6\nvalue = [5, 1]\nclass = c", fillcolor="#ea9a61"] ;
541 -> 543 ;
544 [label="entropy = 0.0\nsamples = 5\nvalue = [5, 0]\nclass = c", fillcolor="#e58139"] ;
543 -> 544 ;
545 [label="entropy = 0.0\nsamples = 1\nvalue = [0, 1]\nclass = l", fillcolor="#399de5"] ;
543 -> 545 ;
546 [label="entropy = 0.0\nsamples = 4\nvalue = [4, 0]\nclass = c", fillcolor="#e58139"] ;
472 -> 546 ;
547 [label="entropy = 0.0\nsamples = 1\nvalue = [0, 1]\nclass = l", fillcolor="#399de5"] ;
471 -> 547 ;
548 [label="entropy = 0.0\nsamples = 9\nvalue = [9, 0]\nclass = c", fillcolor="#e58139"] ;
470 -> 548 ;
549 [label="entropy = 0.0\nsamples = 1\nvalue = [0, 1]\nclass = l", fillcolor="#399de5"] ;
469 -> 549 ;
550 [label="entropy = 0.0\nsamples = 7\nvalue = [7, 0]\nclass = c", fillcolor="#e58139"] ;
468 -> 550 ;
551 [label="age <= -0.592\nentropy = 1.0\nsamples = 8\nvalue = [4, 4]\nclass = c", fillcolor="#ffffff"] ;
467 -> 551 ;
552 [label="entropy = 0.0\nsamples = 3\nvalue = [3, 0]\nclass = c", fillcolor="#e58139"] ;
551 -> 552 ;
553 [label="capital-gain <= 0.046\nentropy = 0.722\nsamples = 5\nvalue = [1, 4]\nclass = l", fillcolor="#6ab6ec"] ;
551 -> 553 ;
554 [label="entropy = 0.0\nsamples = 4\nvalue = [0, 4]\nclass = l", fillcolor="#399de5"] ;
553 -> 554 ;
555 [label="entropy = 0.0\nsamples = 1\nvalue = [1, 0]\nclass = c", fillcolor="#e58139"] ;
553 -> 555 ;
556 [label="final-weight <= 0.005\nentropy = 0.449\nsamples = 32\nvalue = [29, 3]\nclass = c", fillcolor="#e88e4d"] ;
466 -> 556 ;
557 [label="entropy = 0.0\nsamples = 13\nvalue = [13, 0]\nclass = c", fillcolor="#e58139"] ;
556 -> 557 ;
558 [label="final-weight <= 0.011\nentropy = 0.629\nsamples = 19\nvalue = [16, 3]\nclass = c", fillcolor="#ea995e"] ;
556 -> 558 ;
559 [label="native-country <= -0.795\nentropy = 0.918\nsamples = 3\nvalue = [1, 2]\nclass = l", fillcolor="#9ccef2"] ;
558 -> 559 ;
560 [label="entropy = 0.0\nsamples = 1\nvalue = [1, 0]\nclass = c", fillcolor="#e58139"] ;
559 -> 560 ;
561 [label="entropy = 0.0\nsamples = 2\nvalue = [0, 2]\nclass = l", fillcolor="#399de5"] ;
559 -> 561 ;
562 [label="final-weight <= 0.06\nentropy = 0.337\nsamples = 16\nvalue = [15, 1]\nclass = c", fillcolor="#e78946"] ;
558 -> 562 ;
563 [label="entropy = 0.0\nsamples = 11\nvalue = [11, 0]\nclass = c", fillcolor="#e58139"] ;
562 -> 563 ;
564 [label="final-weight <= 0.07\nentropy = 0.722\nsamples = 5\nvalue = [4, 1]\nclass = c", fillcolor="#eca06a"] ;
562 -> 564 ;
565 [label="entropy = 0.0\nsamples = 1\nvalue = [0, 1]\nclass = l", fillcolor="#399de5"] ;
564 -> 565 ;
566 [label="entropy = 0.0\nsamples = 4\nvalue = [4, 0]\nclass = c", fillcolor="#e58139"] ;
564 -> 566 ;
567 [label="workclass <= -0.597\nentropy = 0.833\nsamples = 140\nvalue = [103, 37]\nclass = c", fillcolor="#eeae80"] ;
465 -> 567 ;
568 [label="age <= -0.519\nentropy = 0.971\nsamples = 10\nvalue = [4, 6]\nclass = l", fillcolor="#bddef6"] ;
567 -> 568 ;
569 [label="final-weight <= 1.41\nentropy = 0.592\nsamples = 7\nvalue = [1, 6]\nclass = l", fillcolor="#5aade9"] ;
568 -> 569 ;
570 [label="entropy = 0.0\nsamples = 6\nvalue = [0, 6]\nclass = l", fillcolor="#399de5"] ;
569 -> 570 ;
571 [label="entropy = 0.0\nsamples = 1\nvalue = [1, 0]\nclass = c", fillcolor="#e58139"] ;
569 -> 571 ;
572 [label="entropy = 0.0\nsamples = 3\nvalue = [3, 0]\nclass = c", fillcolor="#e58139"] ;
568 -> 572 ;
573 [label="final-weight <= 0.107\nentropy = 0.792\nsamples = 130\nvalue = [99, 31]\nclass = c", fillcolor="#eda877"] ;
567 -> 573 ;
574 [label="entropy = 0.0\nsamples = 2\nvalue = [0, 2]\nclass = l", fillcolor="#399de5"] ;
573 -> 574 ;
575 [label="final-weight <= 0.122\nentropy = 0.772\nsamples = 128\nvalue = [99, 29]\nclass = c", fillcolor="#eda673"] ;
573 -> 575 ;
576 [label="entropy = 0.0\nsamples = 4\nvalue = [4, 0]\nclass = c", fillcolor="#e58139"] ;
575 -> 576 ;
577 [label="occupation <= -1.081\nentropy = 0.785\nsamples = 124\nvalue = [95, 29]\nclass = c", fillcolor="#eda775"] ;
575 -> 577 ;
578 [label="entropy = 0.0\nsamples = 4\nvalue = [4, 0]\nclass = c", fillcolor="#e58139"] ;
577 -> 578 ;
579 [label="final-weight <= 0.144\nentropy = 0.798\nsamples = 120\nvalue = [91, 29]\nclass = c", fillcolor="#eda978"] ;
577 -> 579 ;
580 [label="final-weight <= 0.133\nentropy = 0.971\nsamples = 5\nvalue = [2, 3]\nclass = l", fillcolor="#bddef6"] ;
579 -> 580 ;
581 [label="occupation <= -0.017\nentropy = 0.918\nsamples = 3\nvalue = [2, 1]\nclass = c", fillcolor="#f2c09c"] ;
580 -> 581 ;
582 [label="entropy = 0.0\nsamples = 1\nvalue = [1, 0]\nclass = c", fillcolor="#e58139"] ;
581 -> 582 ;
583 [label="hour-per-week <= 0.37\nentropy = 1.0\nsamples = 2\nvalue = [1, 1]\nclass = c", fillcolor="#ffffff"] ;
581 -> 583 ;
584 [label="entropy = 0.0\nsamples = 1\nvalue = [0, 1]\nclass = l", fillcolor="#399de5"] ;
583 -> 584 ;
585 [label="entropy = 0.0\nsamples = 1\nvalue = [1, 0]\nclass = c", fillcolor="#e58139"] ;
583 -> 585 ;
586 [label="entropy = 0.0\nsamples = 2\nvalue = [0, 2]\nclass = l", fillcolor="#399de5"] ;
580 -> 586 ;
587 [label="occupation <= -0.727\nentropy = 0.771\nsamples = 115\nvalue = [89, 26]\nclass = c", fillcolor="#eda673"] ;
579 -> 587 ;
588 [label="hour-per-week <= 0.167\nentropy = 0.624\nsamples = 45\nvalue = [38, 7]\nclass = c", fillcolor="#ea985d"] ;
587 -> 588 ;
589 [label="final-weight <= 1.517\nentropy = 0.7\nsamples = 37\nvalue = [30, 7]\nclass = c", fillcolor="#eb9e67"] ;
588 -> 589 ;
590 [label="final-weight <= 1.509\nentropy = 0.758\nsamples = 32\nvalue = [25, 7]\nclass = c", fillcolor="#eca470"] ;
589 -> 590 ;
591 [label="final-weight <= 1.18\nentropy = 0.709\nsamples = 31\nvalue = [25, 6]\nclass = c", fillcolor="#eb9f69"] ;
590 -> 591 ;
592 [label="final-weight <= 1.059\nentropy = 0.779\nsamples = 26\nvalue = [20, 6]\nclass = c", fillcolor="#eda774"] ;
591 -> 592 ;
593 [label="final-weight <= 0.67\nentropy = 0.722\nsamples = 25\nvalue = [20, 5]\nclass = c", fillcolor="#eca06a"] ;
592 -> 593 ;
594 [label="final-weight <= 0.619\nentropy = 0.811\nsamples = 20\nvalue = [15, 5]\nclass = c", fillcolor="#eeab7b"] ;
593 -> 594 ;
595 [label="workclass <= 1.807\nentropy = 0.65\nsamples = 18\nvalue = [15, 3]\nclass = c", fillcolor="#ea9a61"] ;
594 -> 595 ;
596 [label="final-weight <= 0.18\nentropy = 0.523\nsamples = 17\nvalue = [15, 2]\nclass = c", fillcolor="#e89253"] ;
595 -> 596 ;
597 [label="age <= -0.556\nentropy = 0.918\nsamples = 3\nvalue = [2, 1]\nclass = c", fillcolor="#f2c09c"] ;
596 -> 597 ;
598 [label="entropy = 0.0\nsamples = 1\nvalue = [0, 1]\nclass = l", fillcolor="#399de5"] ;
597 -> 598 ;
599 [label="entropy = 0.0\nsamples = 2\nvalue = [2, 0]\nclass = c", fillcolor="#e58139"] ;
597 -> 599 ;
600 [label="age <= -0.446\nentropy = 0.371\nsamples = 14\nvalue = [13, 1]\nclass = c", fillcolor="#e78b48"] ;
596 -> 600 ;
601 [label="entropy = 0.0\nsamples = 10\nvalue = [10, 0]\nclass = c", fillcolor="#e58139"] ;
600 -> 601 ;
602 [label="workclass <= 0.777\nentropy = 0.811\nsamples = 4\nvalue = [3, 1]\nclass = c", fillcolor="#eeab7b"] ;
600 -> 602 ;
603 [label="final-weight <= 0.494\nentropy = 1.0\nsamples = 2\nvalue = [1, 1]\nclass = c", fillcolor="#ffffff"] ;
602 -> 603 ;
604 [label="entropy = 0.0\nsamples = 1\nvalue = [0, 1]\nclass = l", fillcolor="#399de5"] ;
603 -> 604 ;
605 [label="entropy = 0.0\nsamples = 1\nvalue = [1, 0]\nclass = c", fillcolor="#e58139"] ;
603 -> 605 ;
606 [label="entropy = 0.0\nsamples = 2\nvalue = [2, 0]\nclass = c", fillcolor="#e58139"] ;
602 -> 606 ;
607 [label="entropy = 0.0\nsamples = 1\nvalue = [0, 1]\nclass = l", fillcolor="#399de5"] ;
595 -> 607 ;
608 [label="entropy = 0.0\nsamples = 2\nvalue = [0, 2]\nclass = l", fillcolor="#399de5"] ;
594 -> 608 ;
609 [label="entropy = 0.0\nsamples = 5\nvalue = [5, 0]\nclass = c", fillcolor="#e58139"] ;
593 -> 609 ;
610 [label="entropy = 0.0\nsamples = 1\nvalue = [0, 1]\nclass = l", fillcolor="#399de5"] ;
592 -> 610 ;
611 [label="entropy = 0.0\nsamples = 5\nvalue = [5, 0]\nclass = c", fillcolor="#e58139"] ;
591 -> 611 ;
612 [label="entropy = 0.0\nsamples = 1\nvalue = [0, 1]\nclass = l", fillcolor="#399de5"] ;
590 -> 612 ;
613 [label="entropy = 0.0\nsamples = 5\nvalue = [5, 0]\nclass = c", fillcolor="#e58139"] ;
589 -> 613 ;
614 [label="entropy = 0.0\nsamples = 8\nvalue = [8, 0]\nclass = c", fillcolor="#e58139"] ;
588 -> 614 ;
615 [label="occupation <= 1.402\nentropy = 0.844\nsamples = 70\nvalue = [51, 19]\nclass = c", fillcolor="#efb083"] ;
587 -> 615 ;
616 [label="hour-per-week <= 0.127\nentropy = 0.899\nsamples = 54\nvalue = [37, 17]\nclass = c", fillcolor="#f1bb94"] ;
615 -> 616 ;
617 [label="occupation <= -0.372\nentropy = 0.957\nsamples = 37\nvalue = [23, 14]\nclass = c", fillcolor="#f5ceb2"] ;
616 -> 617 ;
618 [label="final-weight <= 0.614\nentropy = 0.954\nsamples = 8\nvalue = [3, 5]\nclass = l", fillcolor="#b0d8f5"] ;
617 -> 618 ;
619 [label="age <= -0.446\nentropy = 0.971\nsamples = 5\nvalue = [3, 2]\nclass = c", fillcolor="#f6d5bd"] ;
618 -> 619 ;
620 [label="age <= -0.592\nentropy = 0.918\nsamples = 3\nvalue = [1, 2]\nclass = l", fillcolor="#9ccef2"] ;
619 -> 620 ;
621 [label="entropy = 0.0\nsamples = 1\nvalue = [1, 0]\nclass = c", fillcolor="#e58139"] ;
620 -> 621 ;
622 [label="entropy = 0.0\nsamples = 2\nvalue = [0, 2]\nclass = l", fillcolor="#399de5"] ;
620 -> 622 ;
623 [label="entropy = 0.0\nsamples = 2\nvalue = [2, 0]\nclass = c", fillcolor="#e58139"] ;
619 -> 623 ;
624 [label="entropy = 0.0\nsamples = 3\nvalue = [0, 3]\nclass = l", fillcolor="#399de5"] ;
618 -> 624 ;
625 [label="final-weight <= 0.486\nentropy = 0.894\nsamples = 29\nvalue = [20, 9]\nclass = c", fillcolor="#f1ba92"] ;
617 -> 625 ;
626 [label="final-weight <= 0.394\nentropy = 1.0\nsamples = 12\nvalue = [6, 6]\nclass = c", fillcolor="#ffffff"] ;
625 -> 626 ;
627 [label="final-weight <= 0.363\nentropy = 0.971\nsamples = 10\nvalue = [6, 4]\nclass = c", fillcolor="#f6d5bd"] ;
626 -> 627 ;
628 [label="age <= -0.519\nentropy = 1.0\nsamples = 8\nvalue = [4, 4]\nclass = c", fillcolor="#ffffff"] ;
627 -> 628 ;
629 [label="occupation <= 0.219\nentropy = 0.811\nsamples = 4\nvalue = [1, 3]\nclass = l", fillcolor="#7bbeee"] ;
628 -> 629 ;
630 [label="age <= -0.666\nentropy = 1.0\nsamples = 2\nvalue = [1, 1]\nclass = c", fillcolor="#ffffff"] ;
629 -> 630 ;
631 [label="entropy = 0.0\nsamples = 1\nvalue = [1, 0]\nclass = c", fillcolor="#e58139"] ;
630 -> 631 ;
632 [label="entropy = 0.0\nsamples = 1\nvalue = [0, 1]\nclass = l", fillcolor="#399de5"] ;
630 -> 632 ;
633 [label="entropy = 0.0\nsamples = 2\nvalue = [0, 2]\nclass = l", fillcolor="#399de5"] ;
629 -> 633 ;
634 [label="age <= -0.373\nentropy = 0.811\nsamples = 4\nvalue = [3, 1]\nclass = c", fillcolor="#eeab7b"] ;
628 -> 634 ;
635 [label="entropy = 0.0\nsamples = 3\nvalue = [3, 0]\nclass = c", fillcolor="#e58139"] ;
634 -> 635 ;
636 [label="entropy = 0.0\nsamples = 1\nvalue = [0, 1]\nclass = l", fillcolor="#399de5"] ;
634 -> 636 ;
637 [label="entropy = 0.0\nsamples = 2\nvalue = [2, 0]\nclass = c", fillcolor="#e58139"] ;
627 -> 637 ;
638 [label="entropy = 0.0\nsamples = 2\nvalue = [0, 2]\nclass = l", fillcolor="#399de5"] ;
626 -> 638 ;
639 [label="occupation <= 1.047\nentropy = 0.672\nsamples = 17\nvalue = [14, 3]\nclass = c", fillcolor="#eb9c63"] ;
625 -> 639 ;
640 [label="final-weight <= 0.698\nentropy = 0.544\nsamples = 16\nvalue = [14, 2]\nclass = c", fillcolor="#e99355"] ;
639 -> 640 ;
641 [label="entropy = 0.0\nsamples = 5\nvalue = [5, 0]\nclass = c", fillcolor="#e58139"] ;
640 -> 641 ;
642 [label="final-weight <= 0.787\nentropy = 0.684\nsamples = 11\nvalue = [9, 2]\nclass = c", fillcolor="#eb9d65"] ;
640 -> 642 ;
643 [label="entropy = 0.0\nsamples = 1\nvalue = [0, 1]\nclass = l", fillcolor="#399de5"] ;
642 -> 643 ;
644 [label="final-weight <= 1.456\nentropy = 0.469\nsamples = 10\nvalue = [9, 1]\nclass = c", fillcolor="#e88f4f"] ;
642 -> 644 ;
645 [label="entropy = 0.0\nsamples = 6\nvalue = [6, 0]\nclass = c", fillcolor="#e58139"] ;
644 -> 645 ;
646 [label="age <= -0.519\nentropy = 0.811\nsamples = 4\nvalue = [3, 1]\nclass = c", fillcolor="#eeab7b"] ;
644 -> 646 ;
647 [label="entropy = 0.0\nsamples = 3\nvalue = [3, 0]\nclass = c", fillcolor="#e58139"] ;
646 -> 647 ;
648 [label="entropy = 0.0\nsamples = 1\nvalue = [0, 1]\nclass = l", fillcolor="#399de5"] ;
646 -> 648 ;
649 [label="entropy = 0.0\nsamples = 1\nvalue = [0, 1]\nclass = l", fillcolor="#399de5"] ;
639 -> 649 ;
650 [label="final-weight <= 1.629\nentropy = 0.672\nsamples = 17\nvalue = [14, 3]\nclass = c", fillcolor="#eb9c63"] ;
616 -> 650 ;
651 [label="final-weight <= 0.478\nentropy = 0.544\nsamples = 16\nvalue = [14, 2]\nclass = c", fillcolor="#e99355"] ;
650 -> 651 ;
652 [label="entropy = 0.0\nsamples = 7\nvalue = [7, 0]\nclass = c", fillcolor="#e58139"] ;
651 -> 652 ;
653 [label="final-weight <= 0.511\nentropy = 0.764\nsamples = 9\nvalue = [7, 2]\nclass = c", fillcolor="#eca572"] ;
651 -> 653 ;
654 [label="entropy = 0.0\nsamples = 1\nvalue = [0, 1]\nclass = l", fillcolor="#399de5"] ;
653 -> 654 ;
655 [label="occupation <= 0.692\nentropy = 0.544\nsamples = 8\nvalue = [7, 1]\nclass = c", fillcolor="#e99355"] ;
653 -> 655 ;
656 [label="entropy = 0.0\nsamples = 6\nvalue = [6, 0]\nclass = c", fillcolor="#e58139"] ;
655 -> 656 ;
657 [label="age <= -0.519\nentropy = 1.0\nsamples = 2\nvalue = [1, 1]\nclass = c", fillcolor="#ffffff"] ;
655 -> 657 ;
658 [label="entropy = 0.0\nsamples = 1\nvalue = [1, 0]\nclass = c", fillcolor="#e58139"] ;
657 -> 658 ;
659 [label="entropy = 0.0\nsamples = 1\nvalue = [0, 1]\nclass = l", fillcolor="#399de5"] ;
657 -> 659 ;
660 [label="entropy = 0.0\nsamples = 1\nvalue = [0, 1]\nclass = l", fillcolor="#399de5"] ;
650 -> 660 ;
661 [label="hour-per-week <= 0.167\nentropy = 0.544\nsamples = 16\nvalue = [14, 2]\nclass = c", fillcolor="#e99355"] ;
615 -> 661 ;
662 [label="entropy = 0.0\nsamples = 10\nvalue = [10, 0]\nclass = c", fillcolor="#e58139"] ;
661 -> 662 ;
663 [label="age <= -0.519\nentropy = 0.918\nsamples = 6\nvalue = [4, 2]\nclass = c", fillcolor="#f2c09c"] ;
661 -> 663 ;
664 [label="entropy = 0.0\nsamples = 2\nvalue = [0, 2]\nclass = l", fillcolor="#399de5"] ;
663 -> 664 ;
665 [label="entropy = 0.0\nsamples = 4\nvalue = [4, 0]\nclass = c", fillcolor="#e58139"] ;
663 -> 665 ;
666 [label="entropy = 0.0\nsamples = 2\nvalue = [0, 2]\nclass = l", fillcolor="#399de5"] ;
458 -> 666 ;
667 [label="entropy = 0.0\nsamples = 5\nvalue = [5, 0]\nclass = c", fillcolor="#e58139"] ;
457 -> 667 ;
668 [label="entropy = 0.0\nsamples = 1\nvalue = [0, 1]\nclass = l", fillcolor="#399de5"] ;
456 -> 668 ;
669 [label="entropy = 0.0\nsamples = 5\nvalue = [5, 0]\nclass = c", fillcolor="#e58139"] ;
455 -> 669 ;
670 [label="native-country <= -3.926\nentropy = 0.555\nsamples = 62\nvalue = [54, 8]\nclass = c", fillcolor="#e99456"] ;
454 -> 670 ;
671 [label="entropy = 0.0\nsamples = 1\nvalue = [0, 1]\nclass = l", fillcolor="#399de5"] ;
670 -> 671 ;
672 [label="workclass <= 1.807\nentropy = 0.514\nsamples = 61\nvalue = [54, 7]\nclass = c", fillcolor="#e89153"] ;
670 -> 672 ;
673 [label="final-weight <= -0.841\nentropy = 0.434\nsamples = 56\nvalue = [51, 5]\nclass = c", fillcolor="#e88d4c"] ;
672 -> 673 ;
674 [label="occupation <= -0.727\nentropy = 0.971\nsamples = 5\nvalue = [3, 2]\nclass = c", fillcolor="#f6d5bd"] ;
673 -> 674 ;
675 [label="entropy = 0.0\nsamples = 3\nvalue = [3, 0]\nclass = c", fillcolor="#e58139"] ;
674 -> 675 ;
676 [label="entropy = 0.0\nsamples = 2\nvalue = [0, 2]\nclass = l", fillcolor="#399de5"] ;
674 -> 676 ;
677 [label="occupation <= -0.727\nentropy = 0.323\nsamples = 51\nvalue = [48, 3]\nclass = c", fillcolor="#e78945"] ;
673 -> 677 ;
678 [label="final-weight <= -0.05\nentropy = 0.575\nsamples = 22\nvalue = [19, 3]\nclass = c", fillcolor="#e99558"] ;
677 -> 678 ;
679 [label="entropy = 0.0\nsamples = 9\nvalue = [9, 0]\nclass = c", fillcolor="#e58139"] ;
678 -> 679 ;
680 [label="final-weight <= -0.028\nentropy = 0.779\nsamples = 13\nvalue = [10, 3]\nclass = c", fillcolor="#eda774"] ;
678 -> 680 ;
681 [label="entropy = 0.0\nsamples = 1\nvalue = [0, 1]\nclass = l", fillcolor="#399de5"] ;
680 -> 681 ;
682 [label="final-weight <= 0.181\nentropy = 0.65\nsamples = 12\nvalue = [10, 2]\nclass = c", fillcolor="#ea9a61"] ;
680 -> 682 ;
683 [label="entropy = 0.0\nsamples = 4\nvalue = [4, 0]\nclass = c", fillcolor="#e58139"] ;
682 -> 683 ;
684 [label="final-weight <= 0.253\nentropy = 0.811\nsamples = 8\nvalue = [6, 2]\nclass = c", fillcolor="#eeab7b"] ;
682 -> 684 ;
685 [label="entropy = 0.0\nsamples = 1\nvalue = [0, 1]\nclass = l", fillcolor="#399de5"] ;
684 -> 685 ;
686 [label="workclass <= -0.597\nentropy = 0.592\nsamples = 7\nvalue = [6, 1]\nclass = c", fillcolor="#e9965a"] ;
684 -> 686 ;
687 [label="final-weight <= 1.228\nentropy = 1.0\nsamples = 2\nvalue = [1, 1]\nclass = c", fillcolor="#ffffff"] ;
686 -> 687 ;
688 [label="entropy = 0.0\nsamples = 1\nvalue = [0, 1]\nclass = l", fillcolor="#399de5"] ;
687 -> 688 ;
689 [label="entropy = 0.0\nsamples = 1\nvalue = [1, 0]\nclass = c", fillcolor="#e58139"] ;
687 -> 689 ;
690 [label="entropy = 0.0\nsamples = 5\nvalue = [5, 0]\nclass = c", fillcolor="#e58139"] ;
686 -> 690 ;
691 [label="entropy = 0.0\nsamples = 29\nvalue = [29, 0]\nclass = c", fillcolor="#e58139"] ;
677 -> 691 ;
692 [label="final-weight <= -0.019\nentropy = 0.971\nsamples = 5\nvalue = [3, 2]\nclass = c", fillcolor="#f6d5bd"] ;
672 -> 692 ;
693 [label="entropy = 0.0\nsamples = 2\nvalue = [0, 2]\nclass = l", fillcolor="#399de5"] ;
692 -> 693 ;
694 [label="entropy = 0.0\nsamples = 3\nvalue = [3, 0]\nclass = c", fillcolor="#e58139"] ;
692 -> 694 ;
695 [label="entropy = 0.0\nsamples = 1\nvalue = [0, 1]\nclass = l", fillcolor="#399de5"] ;
453 -> 695 ;
696 [label="entropy = 0.0\nsamples = 3\nvalue = [0, 3]\nclass = l", fillcolor="#399de5"] ;
386 -> 696 ;
697 [label="entropy = 0.0\nsamples = 21\nvalue = [21, 0]\nclass = c", fillcolor="#e58139"] ;
385 -> 697 ;
698 [label="workclass <= -0.597\nentropy = 0.892\nsamples = 149\nvalue = [103, 46]\nclass = c", fillcolor="#f1b991"] ;
358 -> 698 ;
699 [label="entropy = 0.0\nsamples = 5\nvalue = [0, 5]\nclass = l", fillcolor="#399de5"] ;
698 -> 699 ;
700 [label="hour-per-week <= 3.569\nentropy = 0.862\nsamples = 144\nvalue = [103, 41]\nclass = c", fillcolor="#efb388"] ;
698 -> 700 ;
701 [label="final-weight <= 2.243\nentropy = 0.88\nsamples = 137\nvalue = [96, 41]\nclass = c", fillcolor="#f0b78e"] ;
700 -> 701 ;
702 [label="final-weight <= 1.515\nentropy = 0.867\nsamples = 135\nvalue = [96, 39]\nclass = c", fillcolor="#f0b489"] ;
701 -> 702 ;
703 [label="age <= -0.666\nentropy = 0.89\nsamples = 127\nvalue = [88, 39]\nclass = c", fillcolor="#f1b991"] ;
702 -> 703 ;
704 [label="workclass <= 1.12\nentropy = 0.675\nsamples = 45\nvalue = [37, 8]\nclass = c", fillcolor="#eb9c64"] ;
703 -> 704 ;
705 [label="final-weight <= -0.52\nentropy = 0.552\nsamples = 39\nvalue = [34, 5]\nclass = c", fillcolor="#e99456"] ;
704 -> 705 ;
706 [label="entropy = 0.0\nsamples = 12\nvalue = [12, 0]\nclass = c", fillcolor="#e58139"] ;
705 -> 706 ;
707 [label="final-weight <= -0.337\nentropy = 0.691\nsamples = 27\nvalue = [22, 5]\nclass = c", fillcolor="#eb9e66"] ;
705 -> 707 ;
708 [label="hour-per-week <= 1.301\nentropy = 0.811\nsamples = 4\nvalue = [1, 3]\nclass = l", fillcolor="#7bbeee"] ;
707 -> 708 ;
709 [label="entropy = 0.0\nsamples = 1\nvalue = [1, 0]\nclass = c", fillcolor="#e58139"] ;
708 -> 709 ;
710 [label="entropy = 0.0\nsamples = 3\nvalue = [0, 3]\nclass = l", fillcolor="#399de5"] ;
708 -> 710 ;
711 [label="hour-per-week <= 1.058\nentropy = 0.426\nsamples = 23\nvalue = [21, 2]\nclass = c", fillcolor="#e78d4c"] ;
707 -> 711 ;
712 [label="occupation <= 0.574\nentropy = 1.0\nsamples = 2\nvalue = [1, 1]\nclass = c", fillcolor="#ffffff"] ;
711 -> 712 ;
713 [label="entropy = 0.0\nsamples = 1\nvalue = [1, 0]\nclass = c", fillcolor="#e58139"] ;
712 -> 713 ;
714 [label="entropy = 0.0\nsamples = 1\nvalue = [0, 1]\nclass = l", fillcolor="#399de5"] ;
712 -> 714 ;
715 [label="hour-per-week <= 2.88\nentropy = 0.276\nsamples = 21\nvalue = [20, 1]\nclass = c", fillcolor="#e68743"] ;
711 -> 715 ;
716 [label="entropy = 0.0\nsamples = 19\nvalue = [19, 0]\nclass = c", fillcolor="#e58139"] ;
715 -> 716 ;
717 [label="race <= -0.784\nentropy = 1.0\nsamples = 2\nvalue = [1, 1]\nclass = c", fillcolor="#ffffff"] ;
715 -> 717 ;
718 [label="entropy = 0.0\nsamples = 1\nvalue = [0, 1]\nclass = l", fillcolor="#399de5"] ;
717 -> 718 ;
719 [label="entropy = 0.0\nsamples = 1\nvalue = [1, 0]\nclass = c", fillcolor="#e58139"] ;
717 -> 719 ;
720 [label="occupation <= -0.017\nentropy = 1.0\nsamples = 6\nvalue = [3, 3]\nclass = c", fillcolor="#ffffff"] ;
704 -> 720 ;
721 [label="final-weight <= -0.923\nentropy = 0.811\nsamples = 4\nvalue = [3, 1]\nclass = c", fillcolor="#eeab7b"] ;
720 -> 721 ;
722 [label="entropy = 0.0\nsamples = 1\nvalue = [0, 1]\nclass = l", fillcolor="#399de5"] ;
721 -> 722 ;
723 [label="entropy = 0.0\nsamples = 3\nvalue = [3, 0]\nclass = c", fillcolor="#e58139"] ;
721 -> 723 ;
724 [label="entropy = 0.0\nsamples = 2\nvalue = [0, 2]\nclass = l", fillcolor="#399de5"] ;
720 -> 724 ;
725 [label="native-country <= 0.1\nentropy = 0.957\nsamples = 82\nvalue = [51, 31]\nclass = c", fillcolor="#f5ceb1"] ;
703 -> 725 ;
726 [label="hour-per-week <= 1.382\nentropy = 0.811\nsamples = 8\nvalue = [2, 6]\nclass = l", fillcolor="#7bbeee"] ;
725 -> 726 ;
727 [label="occupation <= -0.135\nentropy = 0.918\nsamples = 3\nvalue = [2, 1]\nclass = c", fillcolor="#f2c09c"] ;
726 -> 727 ;
728 [label="entropy = 0.0\nsamples = 1\nvalue = [0, 1]\nclass = l", fillcolor="#399de5"] ;
727 -> 728 ;
729 [label="entropy = 0.0\nsamples = 2\nvalue = [2, 0]\nclass = c", fillcolor="#e58139"] ;
727 -> 729 ;
730 [label="entropy = 0.0\nsamples = 5\nvalue = [0, 5]\nclass = l", fillcolor="#399de5"] ;
726 -> 730 ;
731 [label="workclass <= 1.12\nentropy = 0.923\nsamples = 74\nvalue = [49, 25]\nclass = c", fillcolor="#f2c19e"] ;
725 -> 731 ;
732 [label="final-weight <= -1.412\nentropy = 0.973\nsamples = 57\nvalue = [34, 23]\nclass = c", fillcolor="#f7d6bf"] ;
731 -> 732 ;
733 [label="entropy = 0.0\nsamples = 2\nvalue = [0, 2]\nclass = l", fillcolor="#399de5"] ;
732 -> 733 ;
734 [label="hour-per-week <= 2.597\nentropy = 0.959\nsamples = 55\nvalue = [34, 21]\nclass = c", fillcolor="#f5cfb3"] ;
732 -> 734 ;
735 [label="occupation <= -0.017\nentropy = 0.941\nsamples = 53\nvalue = [34, 19]\nclass = c", fillcolor="#f4c7a8"] ;
734 -> 735 ;
736 [label="age <= -0.373\nentropy = 0.742\nsamples = 19\nvalue = [15, 4]\nclass = c", fillcolor="#eca36e"] ;
735 -> 736 ;
737 [label="entropy = 0.0\nsamples = 11\nvalue = [11, 0]\nclass = c", fillcolor="#e58139"] ;
736 -> 737 ;
738 [label="hour-per-week <= 1.989\nentropy = 1.0\nsamples = 8\nvalue = [4, 4]\nclass = c", fillcolor="#ffffff"] ;
736 -> 738 ;
739 [label="age <= -0.299\nentropy = 0.918\nsamples = 6\nvalue = [2, 4]\nclass = l", fillcolor="#9ccef2"] ;
738 -> 739 ;
740 [label="entropy = 0.0\nsamples = 3\nvalue = [0, 3]\nclass = l", fillcolor="#399de5"] ;
739 -> 740 ;
741 [label="final-weight <= 0.679\nentropy = 0.918\nsamples = 3\nvalue = [2, 1]\nclass = c", fillcolor="#f2c09c"] ;
739 -> 741 ;
742 [label="entropy = 0.0\nsamples = 2\nvalue = [2, 0]\nclass = c", fillcolor="#e58139"] ;
741 -> 742 ;
743 [label="entropy = 0.0\nsamples = 1\nvalue = [0, 1]\nclass = l", fillcolor="#399de5"] ;
741 -> 743 ;
744 [label="entropy = 0.0\nsamples = 2\nvalue = [2, 0]\nclass = c", fillcolor="#e58139"] ;
738 -> 744 ;
745 [label="final-weight <= 0.289\nentropy = 0.99\nsamples = 34\nvalue = [19, 15]\nclass = c", fillcolor="#fae4d5"] ;
735 -> 745 ;
746 [label="final-weight <= -0.568\nentropy = 0.996\nsamples = 26\nvalue = [12, 14]\nclass = l", fillcolor="#e3f1fb"] ;
745 -> 746 ;
747 [label="hour-per-week <= 1.058\nentropy = 0.722\nsamples = 10\nvalue = [8, 2]\nclass = c", fillcolor="#eca06a"] ;
746 -> 747 ;
748 [label="entropy = 0.0\nsamples = 1\nvalue = [0, 1]\nclass = l", fillcolor="#399de5"] ;
747 -> 748 ;
749 [label="hour-per-week <= 1.787\nentropy = 0.503\nsamples = 9\nvalue = [8, 1]\nclass = c", fillcolor="#e89152"] ;
747 -> 749 ;
750 [label="entropy = 0.0\nsamples = 6\nvalue = [6, 0]\nclass = c", fillcolor="#e58139"] ;
749 -> 750 ;
751 [label="final-weight <= -0.786\nentropy = 0.918\nsamples = 3\nvalue = [2, 1]\nclass = c", fillcolor="#f2c09c"] ;
749 -> 751 ;
752 [label="entropy = 0.0\nsamples = 1\nvalue = [0, 1]\nclass = l", fillcolor="#399de5"] ;
751 -> 752 ;
753 [label="entropy = 0.0\nsamples = 2\nvalue = [2, 0]\nclass = c", fillcolor="#e58139"] ;
751 -> 753 ;
754 [label="age <= -0.373\nentropy = 0.811\nsamples = 16\nvalue = [4, 12]\nclass = l", fillcolor="#7bbeee"] ;
746 -> 754 ;
755 [label="hour-per-week <= 1.787\nentropy = 0.439\nsamples = 11\nvalue = [1, 10]\nclass = l", fillcolor="#4da7e8"] ;
754 -> 755 ;
756 [label="entropy = 0.0\nsamples = 9\nvalue = [0, 9]\nclass = l", fillcolor="#399de5"] ;
755 -> 756 ;
757 [label="final-weight <= -0.014\nentropy = 1.0\nsamples = 2\nvalue = [1, 1]\nclass = c", fillcolor="#ffffff"] ;
755 -> 757 ;
758 [label="entropy = 0.0\nsamples = 1\nvalue = [1, 0]\nclass = c", fillcolor="#e58139"] ;
757 -> 758 ;
759 [label="entropy = 0.0\nsamples = 1\nvalue = [0, 1]\nclass = l", fillcolor="#399de5"] ;
757 -> 759 ;
760 [label="final-weight <= -0.091\nentropy = 0.971\nsamples = 5\nvalue = [3, 2]\nclass = c", fillcolor="#f6d5bd"] ;
754 -> 760 ;
761 [label="age <= -0.299\nentropy = 0.918\nsamples = 3\nvalue = [1, 2]\nclass = l", fillcolor="#9ccef2"] ;
760 -> 761 ;
762 [label="entropy = 0.0\nsamples = 1\nvalue = [1, 0]\nclass = c", fillcolor="#e58139"] ;
761 -> 762 ;
763 [label="entropy = 0.0\nsamples = 2\nvalue = [0, 2]\nclass = l", fillcolor="#399de5"] ;
761 -> 763 ;
764 [label="entropy = 0.0\nsamples = 2\nvalue = [2, 0]\nclass = c", fillcolor="#e58139"] ;
760 -> 764 ;
765 [label="final-weight <= 1.467\nentropy = 0.544\nsamples = 8\nvalue = [7, 1]\nclass = c", fillcolor="#e99355"] ;
745 -> 765 ;
766 [label="entropy = 0.0\nsamples = 7\nvalue = [7, 0]\nclass = c", fillcolor="#e58139"] ;
765 -> 766 ;
767 [label="entropy = 0.0\nsamples = 1\nvalue = [0, 1]\nclass = l", fillcolor="#399de5"] ;
765 -> 767 ;
768 [label="entropy = 0.0\nsamples = 2\nvalue = [0, 2]\nclass = l", fillcolor="#399de5"] ;
734 -> 768 ;
769 [label="age <= -0.299\nentropy = 0.523\nsamples = 17\nvalue = [15, 2]\nclass = c", fillcolor="#e89253"] ;
731 -> 769 ;
770 [label="final-weight <= -0.668\nentropy = 0.337\nsamples = 16\nvalue = [15, 1]\nclass = c", fillcolor="#e78946"] ;
769 -> 770 ;
771 [label="final-weight <= -0.747\nentropy = 0.65\nsamples = 6\nvalue = [5, 1]\nclass = c", fillcolor="#ea9a61"] ;
770 -> 771 ;
772 [label="entropy = 0.0\nsamples = 5\nvalue = [5, 0]\nclass = c", fillcolor="#e58139"] ;
771 -> 772 ;
773 [label="entropy = 0.0\nsamples = 1\nvalue = [0, 1]\nclass = l", fillcolor="#399de5"] ;
771 -> 773 ;
774 [label="entropy = 0.0\nsamples = 10\nvalue = [10, 0]\nclass = c", fillcolor="#e58139"] ;
770 -> 774 ;
775 [label="entropy = 0.0\nsamples = 1\nvalue = [0, 1]\nclass = l", fillcolor="#399de5"] ;
769 -> 775 ;
776 [label="entropy = 0.0\nsamples = 8\nvalue = [8, 0]\nclass = c", fillcolor="#e58139"] ;
702 -> 776 ;
777 [label="entropy = 0.0\nsamples = 2\nvalue = [0, 2]\nclass = l", fillcolor="#399de5"] ;
701 -> 777 ;
778 [label="entropy = 0.0\nsamples = 7\nvalue = [7, 0]\nclass = c", fillcolor="#e58139"] ;
700 -> 778 ;
779 [label="final-weight <= -0.273\nentropy = 0.866\nsamples = 698\nvalue = [497, 201]\nclass = c", fillcolor="#f0b489"] ;
357 -> 779 ;
780 [label="final-weight <= -1.539\nentropy = 0.741\nsamples = 286\nvalue = [226, 60]\nclass = c", fillcolor="#eca26e"] ;
779 -> 780 ;
781 [label="hour-per-week <= 1.422\nentropy = 0.863\nsamples = 7\nvalue = [2, 5]\nclass = l", fillcolor="#88c4ef"] ;
780 -> 781 ;
782 [label="entropy = 0.0\nsamples = 5\nvalue = [0, 5]\nclass = l", fillcolor="#399de5"] ;
781 -> 782 ;
783 [label="entropy = 0.0\nsamples = 2\nvalue = [2, 0]\nclass = c", fillcolor="#e58139"] ;
781 -> 783 ;
784 [label="occupation <= -1.081\nentropy = 0.716\nsamples = 279\nvalue = [224, 55]\nclass = c", fillcolor="#eba06a"] ;
780 -> 784 ;
785 [label="final-weight <= -0.77\nentropy = 0.997\nsamples = 15\nvalue = [8, 7]\nclass = c", fillcolor="#fcefe6"] ;
784 -> 785 ;
786 [label="education <= -0.723\nentropy = 0.881\nsamples = 10\nvalue = [7, 3]\nclass = c", fillcolor="#f0b78e"] ;
785 -> 786 ;
787 [label="entropy = 0.0\nsamples = 1\nvalue = [0, 1]\nclass = l", fillcolor="#399de5"] ;
786 -> 787 ;
788 [label="final-weight <= -1.418\nentropy = 0.764\nsamples = 9\nvalue = [7, 2]\nclass = c", fillcolor="#eca572"] ;
786 -> 788 ;
789 [label="entropy = 0.0\nsamples = 2\nvalue = [2, 0]\nclass = c", fillcolor="#e58139"] ;
788 -> 789 ;
790 [label="final-weight <= -1.345\nentropy = 0.863\nsamples = 7\nvalue = [5, 2]\nclass = c", fillcolor="#efb388"] ;
788 -> 790 ;
791 [label="entropy = 0.0\nsamples = 1\nvalue = [0, 1]\nclass = l", fillcolor="#399de5"] ;
790 -> 791 ;
792 [label="hour-per-week <= 0.37\nentropy = 0.65\nsamples = 6\nvalue = [5, 1]\nclass = c", fillcolor="#ea9a61"] ;
790 -> 792 ;
793 [label="entropy = 0.0\nsamples = 4\nvalue = [4, 0]\nclass = c", fillcolor="#e58139"] ;
792 -> 793 ;
794 [label="final-weight <= -1.118\nentropy = 1.0\nsamples = 2\nvalue = [1, 1]\nclass = c", fillcolor="#ffffff"] ;
792 -> 794 ;
795 [label="entropy = 0.0\nsamples = 1\nvalue = [1, 0]\nclass = c", fillcolor="#e58139"] ;
794 -> 795 ;
796 [label="entropy = 0.0\nsamples = 1\nvalue = [0, 1]\nclass = l", fillcolor="#399de5"] ;
794 -> 796 ;
797 [label="age <= -0.959\nentropy = 0.722\nsamples = 5\nvalue = [1, 4]\nclass = l", fillcolor="#6ab6ec"] ;
785 -> 797 ;
798 [label="entropy = 0.0\nsamples = 1\nvalue = [1, 0]\nclass = c", fillcolor="#e58139"] ;
797 -> 798 ;
799 [label="entropy = 0.0\nsamples = 4\nvalue = [0, 4]\nclass = l", fillcolor="#399de5"] ;
797 -> 799 ;
800 [label="age <= -0.373\nentropy = 0.684\nsamples = 264\nvalue = [216, 48]\nclass = c", fillcolor="#eb9d65"] ;
784 -> 800 ;
801 [label="final-weight <= -0.974\nentropy = 0.594\nsamples = 195\nvalue = [167, 28]\nclass = c", fillcolor="#e9965a"] ;
800 -> 801 ;
802 [label="workclass <= -0.597\nentropy = 0.334\nsamples = 65\nvalue = [61, 4]\nclass = c", fillcolor="#e78946"] ;
801 -> 802 ;
803 [label="age <= -0.483\nentropy = 0.918\nsamples = 3\nvalue = [2, 1]\nclass = c", fillcolor="#f2c09c"] ;
802 -> 803 ;
804 [label="entropy = 0.0\nsamples = 2\nvalue = [2, 0]\nclass = c", fillcolor="#e58139"] ;
803 -> 804 ;
805 [label="entropy = 0.0\nsamples = 1\nvalue = [0, 1]\nclass = l", fillcolor="#399de5"] ;
803 -> 805 ;
806 [label="occupation <= 0.219\nentropy = 0.28\nsamples = 62\nvalue = [59, 3]\nclass = c", fillcolor="#e68743"] ;
802 -> 806 ;
807 [label="workclass <= 0.433\nentropy = 0.384\nsamples = 40\nvalue = [37, 3]\nclass = c", fillcolor="#e78b49"] ;
806 -> 807 ;
808 [label="final-weight <= -1.471\nentropy = 0.491\nsamples = 28\nvalue = [25, 3]\nclass = c", fillcolor="#e89051"] ;
807 -> 808 ;
809 [label="occupation <= -0.372\nentropy = 1.0\nsamples = 2\nvalue = [1, 1]\nclass = c", fillcolor="#ffffff"] ;
808 -> 809 ;
810 [label="entropy = 0.0\nsamples = 1\nvalue = [0, 1]\nclass = l", fillcolor="#399de5"] ;
809 -> 810 ;
811 [label="entropy = 0.0\nsamples = 1\nvalue = [1, 0]\nclass = c", fillcolor="#e58139"] ;
809 -> 811 ;
812 [label="final-weight <= -1.294\nentropy = 0.391\nsamples = 26\nvalue = [24, 2]\nclass = c", fillcolor="#e78c49"] ;
808 -> 812 ;
813 [label="entropy = 0.0\nsamples = 15\nvalue = [15, 0]\nclass = c", fillcolor="#e58139"] ;
812 -> 813 ;
814 [label="occupation <= -0.727\nentropy = 0.684\nsamples = 11\nvalue = [9, 2]\nclass = c", fillcolor="#eb9d65"] ;
812 -> 814 ;
815 [label="entropy = 0.0\nsamples = 7\nvalue = [7, 0]\nclass = c", fillcolor="#e58139"] ;
814 -> 815 ;
816 [label="occupation <= -0.254\nentropy = 1.0\nsamples = 4\nvalue = [2, 2]\nclass = c", fillcolor="#ffffff"] ;
814 -> 816 ;
817 [label="entropy = 0.0\nsamples = 1\nvalue = [0, 1]\nclass = l", fillcolor="#399de5"] ;
816 -> 817 ;
818 [label="final-weight <= -1.17\nentropy = 0.918\nsamples = 3\nvalue = [2, 1]\nclass = c", fillcolor="#f2c09c"] ;
816 -> 818 ;
819 [label="entropy = 0.0\nsamples = 2\nvalue = [2, 0]\nclass = c", fillcolor="#e58139"] ;
818 -> 819 ;
820 [label="entropy = 0.0\nsamples = 1\nvalue = [0, 1]\nclass = l", fillcolor="#399de5"] ;
818 -> 820 ;
821 [label="entropy = 0.0\nsamples = 12\nvalue = [12, 0]\nclass = c", fillcolor="#e58139"] ;
807 -> 821 ;
822 [label="entropy = 0.0\nsamples = 22\nvalue = [22, 0]\nclass = c", fillcolor="#e58139"] ;
806 -> 822 ;
823 [label="final-weight <= -0.934\nentropy = 0.69\nsamples = 130\nvalue = [106, 24]\nclass = c", fillcolor="#eb9e66"] ;
801 -> 823 ;
824 [label="final-weight <= -0.954\nentropy = 0.971\nsamples = 5\nvalue = [2, 3]\nclass = l", fillcolor="#bddef6"] ;
823 -> 824 ;
825 [label="age <= -0.739\nentropy = 0.918\nsamples = 3\nvalue = [2, 1]\nclass = c", fillcolor="#f2c09c"] ;
824 -> 825 ;
826 [label="entropy = 0.0\nsamples = 1\nvalue = [0, 1]\nclass = l", fillcolor="#399de5"] ;
825 -> 826 ;
827 [label="entropy = 0.0\nsamples = 2\nvalue = [2, 0]\nclass = c", fillcolor="#e58139"] ;
825 -> 827 ;
828 [label="entropy = 0.0\nsamples = 2\nvalue = [0, 2]\nclass = l", fillcolor="#399de5"] ;
824 -> 828 ;
829 [label="hour-per-week <= 0.491\nentropy = 0.653\nsamples = 125\nvalue = [104, 21]\nclass = c", fillcolor="#ea9a61"] ;
823 -> 829 ;
830 [label="hour-per-week <= 0.005\nentropy = 0.516\nsamples = 78\nvalue = [69, 9]\nclass = c", fillcolor="#e89153"] ;
829 -> 830 ;
831 [label="age <= -0.446\nentropy = 0.575\nsamples = 66\nvalue = [57, 9]\nclass = c", fillcolor="#e99558"] ;
830 -> 831 ;
832 [label="age <= -0.886\nentropy = 0.629\nsamples = 57\nvalue = [48, 9]\nclass = c", fillcolor="#ea995e"] ;
831 -> 832 ;
833 [label="entropy = 0.0\nsamples = 8\nvalue = [8, 0]\nclass = c", fillcolor="#e58139"] ;
832 -> 833 ;
834 [label="final-weight <= -0.723\nentropy = 0.688\nsamples = 49\nvalue = [40, 9]\nclass = c", fillcolor="#eb9d66"] ;
832 -> 834 ;
835 [label="native-country <= -0.795\nentropy = 0.353\nsamples = 15\nvalue = [14, 1]\nclass = c", fillcolor="#e78a47"] ;
834 -> 835 ;
836 [label="entropy = 0.0\nsamples = 1\nvalue = [0, 1]\nclass = l", fillcolor="#399de5"] ;
835 -> 836 ;
837 [label="entropy = 0.0\nsamples = 14\nvalue = [14, 0]\nclass = c", fillcolor="#e58139"] ;
835 -> 837 ;
838 [label="final-weight <= -0.721\nentropy = 0.787\nsamples = 34\nvalue = [26, 8]\nclass = c", fillcolor="#eda876"] ;
834 -> 838 ;
839 [label="entropy = 0.0\nsamples = 1\nvalue = [0, 1]\nclass = l", fillcolor="#399de5"] ;
838 -> 839 ;
840 [label="final-weight <= -0.389\nentropy = 0.746\nsamples = 33\nvalue = [26, 7]\nclass = c", fillcolor="#eca36e"] ;
838 -> 840 ;
841 [label="final-weight <= -0.52\nentropy = 0.592\nsamples = 21\nvalue = [18, 3]\nclass = c", fillcolor="#e9965a"] ;
840 -> 841 ;
842 [label="education <= 0.311\nentropy = 0.845\nsamples = 11\nvalue = [8, 3]\nclass = c", fillcolor="#efb083"] ;
841 -> 842 ;
843 [label="age <= -0.702\nentropy = 0.918\nsamples = 3\nvalue = [1, 2]\nclass = l", fillcolor="#9ccef2"] ;
842 -> 843 ;
844 [label="entropy = 0.0\nsamples = 1\nvalue = [1, 0]\nclass = c", fillcolor="#e58139"] ;
843 -> 844 ;
845 [label="entropy = 0.0\nsamples = 2\nvalue = [0, 2]\nclass = l", fillcolor="#399de5"] ;
843 -> 845 ;
846 [label="final-weight <= -0.541\nentropy = 0.544\nsamples = 8\nvalue = [7, 1]\nclass = c", fillcolor="#e99355"] ;
842 -> 846 ;
847 [label="entropy = 0.0\nsamples = 7\nvalue = [7, 0]\nclass = c", fillcolor="#e58139"] ;
846 -> 847 ;
848 [label="entropy = 0.0\nsamples = 1\nvalue = [0, 1]\nclass = l", fillcolor="#399de5"] ;
846 -> 848 ;
849 [label="entropy = 0.0\nsamples = 10\nvalue = [10, 0]\nclass = c", fillcolor="#e58139"] ;
841 -> 849 ;
850 [label="capital-loos <= 1.626\nentropy = 0.918\nsamples = 12\nvalue = [8, 4]\nclass = c", fillcolor="#f2c09c"] ;
840 -> 850 ;
851 [label="age <= -0.702\nentropy = 0.845\nsamples = 11\nvalue = [8, 3]\nclass = c", fillcolor="#efb083"] ;
850 -> 851 ;
852 [label="entropy = 0.0\nsamples = 2\nvalue = [2, 0]\nclass = c", fillcolor="#e58139"] ;
851 -> 852 ;
853 [label="final-weight <= -0.369\nentropy = 0.918\nsamples = 9\nvalue = [6, 3]\nclass = c", fillcolor="#f2c09c"] ;
851 -> 853 ;
854 [label="entropy = 0.0\nsamples = 2\nvalue = [2, 0]\nclass = c", fillcolor="#e58139"] ;
853 -> 854 ;
855 [label="occupation <= 1.047\nentropy = 0.985\nsamples = 7\nvalue = [4, 3]\nclass = c", fillcolor="#f8e0ce"] ;
853 -> 855 ;
